{
  "gauge_weights": [
    [
      -3.6441113062964786e-07,
      -3.961867008109934e-07,
      -4.207313269169851e-07,
      -4.278315493693191e-07,
      -4.104601569886618e-07,
      -3.831741115668172e-07,
      -3.3946064164253886e-07,
      -3.302134196267365e-07,
      -3.225199487938136e-07,
      -3.171590532908633e-07,
      -3.0881154465192935e-07,
      -3.031163360506973e-07,
      -3.006120375618348e-07,
      -3.0154296991182e-07,
      -2.9549310639076123e-07,
      -2.9272350685022055e-07,
      -2.7498962411263713e-07,
      -2.81033001750265e-07,
      -2.702638301203872e-07,
      -2.6649314849759314e-07,
      -2.664565040532805e-07,
      -2.674447669202316e-07,
      -2.729824007901574e-07,
      -2.7941700508257707e-07,
      -2.7728330054115486e-07,
      -2.879750655704948e-07,
      -2.954288123800444e-07,
      -2.9566830089453014e-07,
      -3.001150700015059e-07,
      -2.9194564690690055e-07,
      -2.744741781364427e-07,
      -2.6402453891913806e-07,
      -2.686970680010022e-07,
      -2.7969512430399106e-07,
      -2.738480262242854e-07,
      -2.660000035953175e-07,
      -2.7021305543439884e-07,
      -2.7852617529562905e-07,
      -2.837995863615131e-07,
      -2.9058529311696274e-07,
      -2.8201800913201184e-07,
      -2.916088218925044e-07,
      -3.0363765069963247e-07,
      -3.2685300949674057e-07,
      -3.3055235721822526e-07,
      -3.475887168936601e-07,
      -3.5551301615042354e-07,
      -3.378000690560503e-07,
      -3.044194812495582e-07,
      -3.0746742877809556e-07,
      -3.077516328331247e-07,
      -3.03526080761585e-07,
      -2.9777026345866315e-07,
      -2.9897257039586227e-07,
      -2.96476886425076e-07,
      -2.8945099916780433e-07,
      -2.847424622838638e-07,
      -2.9091597148840207e-07,
      -2.9543509708993574e-07,
      -3.00562378844203e-07,
      -2.8740777829716445e-07,
      -2.732112560125898e-07,
      -2.659993035141e-07,
      -2.6094457121399564e-07,
      -2.539556482250181e-07,
      -2.523512791488542e-07,
      -2.5798001097903707e-07,
      -2.6051139114570815e-07,
      -2.785587400314875e-07,
      -2.950446181598699e-07,
      -3.0642202565599954e-07,
      -3.0199840581787025e-07,
      -3.083595877453068e-07,
      -3.073932660969892e-07,
      -2.895509389115593e-07,
      -2.774718244451855e-07,
      -2.794458761287679e-07,
      -2.8294079549731934e-07,
      -2.8449865736013087e-07,
      -2.825888453928284e-07,
      -2.8014822104217015e-07,
      -2.878242618236994e-07,
      -2.8121465167336795e-07,
      -2.678587858144459e-07,
      -2.765461542048263e-07,
      -2.951702094424995e-07,
      -3.0821723837552727e-07,
      -3.276867036520413e-07,
      -3.597566013055011e-07,
      -3.7834436335597225e-07,
      -3.902418619769651e-07,
      -3.9156830322554e-07,
      -3.914422897502486e-07,
      -3.884486694392102e-07,
      -3.8690797872280893e-07,
      -3.9663002980887583e-07,
      -4.122515462210299e-07,
      -4.35850716358329e-07,
      -4.612567939724934e-07,
      -4.562158196449789e-07,
      -4.868939926858498e-07,
      -4.928138060786086e-07,
      -5.164446024028166e-07,
      -5.109038075735633e-07,
      -5.2325580539248e-07,
      -5.018624721693963e-07,
      -4.82791992045501e-07,
      -4.49264851359943e-07,
      -4.3475096255068994e-07,
      -4.268865358975054e-07,
      -4.309978855942779e-07,
      -4.4721039433245735e-07,
      -4.5530675746014907e-07,
      -4.464365560962698e-07,
      -4.2234291999412976e-07,
      -3.803803509161648e-07,
      -3.625085645105644e-07,
      -3.712895283236234e-07,
      -4.045612427630089e-07,
      -4.3207893935621754e-07,
      -4.3354181736419593e-07,
      -4.388297213285206e-07,
      -4.562119678508518e-07,
      -4.6822408977777805e-07,
      -4.987198285747305e-07,
      -5.063689622588266e-07,
      -5.088117771145037e-07,
      -5.15001033370393e-07,
      -4.787726788325257e-07,
      -4.6615030019737763e-07,
      -4.7545625214587507e-07,
      -4.7204207669069697e-07,
      -4.7115130097537335e-07,
      -4.94176677201739e-07,
      -5.092719232633493e-07,
      -5.028414197217596e-07,
      -5.112762558930494e-07,
      -5.013126170663558e-07,
      -4.570499062427069e-07,
      -4.481961688723182e-07,
      -4.435016560870203e-07,
      -4.612540414906399e-07,
      -4.727181248109436e-07,
      -4.7062656532726177e-07,
      -4.6281088901388403e-07,
      -4.51701854445949e-07,
      -4.3778982250183774e-07,
      -4.4094295486999876e-07,
      -4.416891905176792e-07,
      -4.488603069792766e-07,
      -4.5932294921009706e-07,
      -4.700822097619085e-07,
      -4.685047404199727e-07,
      -4.816750531259369e-07,
      -4.929423294927934e-07,
      -5.02517551033997e-07,
      -5.090560140357966e-07,
      -5.132219107284179e-07,
      -5.166399790183175e-07,
      -5.1083032867533e-07,
      -5.014196812374426e-07,
      -4.947156202072567e-07,
      -4.7168204676639426e-07,
      -4.5541513979039475e-07,
      -4.3811698564447347e-07,
      -4.296510505801139e-07,
      -4.1448798474651506e-07,
      -4.069735076061403e-07,
      -3.8778190260969443e-07,
      -3.51354922431194e-07,
      -3.273981741954949e-07,
      -3.047633292441519e-07,
      -2.690017627835811e-07,
      -2.107266872067304e-07,
      -1.6963124162335126e-07,
      -1.493194811071969e-07,
      -1.434795884594515e-07,
      -1.3354248843704117e-07,
      -1.1587942178655235e-07,
      -9.185172473017092e-08,
      -7.25324213631371e-08,
      -6.378164885696408e-08,
      -5.281438948598844e-08,
      -5.7543946049018834e-08,
      -8.548890100190339e-08,
      -1.5759144310672956e-07,
      -2.2205367632121686e-07,
      -1.7469315280497436e-07,
      -1.805237480976578e-07,
      -1.9127370606923138e-07,
      -1.8554816508629506e-07,
      -1.9038053491897952e-07,
      -1.9855244161411493e-07,
      -1.9502722240108326e-07,
      -1.8368126286763272e-07,
      -1.779799242958079e-07,
      -1.7662434145340803e-07,
      -1.8510074843733465e-07,
      -1.658468772369201e-07,
      -1.9464416785055113e-07,
      -2.1591647273721918e-07,
      -2.655633352181586e-07,
      -3.129815015773826e-07,
      -3.6350773424899485e-07,
      -4.065715483586322e-07,
      -4.159966120202305e-07,
      -4.151874097762711e-07,
      -3.817583870902305e-07,
      -4.419253415960382e-07,
      -3.8117081418105023e-07,
      -3.438331998379371e-07,
      -3.945317306411319e-07,
      -4.406711094206495e-07,
      -4.578138325345789e-07,
      -3.893700876766488e-07,
      -3.6375587274113713e-07,
      -3.5876519655908057e-07,
      -3.471745221883417e-07,
      -3.3844373535826974e-07,
      -3.4991927377476596e-07,
      -3.587578996912503e-07,
      -3.316211854972915e-07,
      -3.7639757687184424e-07,
      -3.736723405996225e-07,
      -3.6263028003051465e-07,
      -3.553563966757733e-07,
      -3.725232990900554e-07,
      -3.739568142909553e-07,
      -3.787285252404327e-07,
      -3.6540442572004867e-07,
      -3.570284398370135e-07,
      -3.3714960100683874e-07,
      -3.725459471976096e-07,
      -4.00206778452746e-07,
      -3.6813686237613436e-07,
      -3.8736610001998537e-07,
      -4.6003337769579187e-07,
      -4.988848352877692e-07,
      -4.6595100741326887e-07,
      -4.85545957498974e-07,
      -5.368750693889673e-07,
      -5.403480516099774e-07,
      -5.421504998919315e-07,
      -5.585879124895622e-07,
      -5.600860070551342e-07,
      -5.50900661027188e-07,
      -5.539956508677138e-07,
      -5.317827390752071e-07,
      -5.073613968044031e-07,
      -4.893708238122407e-07,
      -4.854874404859827e-07,
      -4.770123382681127e-07,
      -4.651749567960766e-07,
      -4.411574373855134e-07,
      -4.452561319436421e-07,
      -4.3689373738346727e-07,
      -4.0180843702080976e-07,
      -4.0518092428928245e-07,
      -4.850531418435343e-07,
      -5.559924107174176e-07,
      -5.859069426061925e-07,
      -6.148617251995555e-07,
      -6.462712774363887e-07,
      -6.52612254745087e-07,
      -6.056331359221413e-07,
      -5.514581066236388e-07,
      -5.429566518107693e-07,
      -6.236676851203915e-07,
      -6.600456754861112e-07,
      -6.508112612947622e-07,
      -6.38891289345864e-07,
      -6.550509323371979e-07,
      -6.617845188353719e-07,
      -6.533899278623266e-07,
      -6.391879441854609e-07,
      -6.289126612522518e-07,
      -6.051887369460381e-07,
      -5.674127758162081e-07,
      -5.205812116819498e-07,
      -5.069800280532668e-07,
      -4.805132407587354e-07,
      -4.4106290422791857e-07,
      -4.3478505450026745e-07,
      -4.685812538755382e-07,
      -4.9862978177909e-07,
      -5.338974466418875e-07,
      -5.350243807311839e-07,
      -5.276387906655286e-07,
      -5.482456337180874e-07,
      -6.493944320534901e-07,
      -6.49139733257479e-07,
      -6.17112517171683e-07,
      -5.826606047546224e-07,
      -5.550964490477516e-07,
      -5.353363502520944e-07,
      -4.467374147676132e-07
    ],
    [
      -6.629655846949607e-08,
      -7.137675103816348e-08,
      -6.112739939614566e-08,
      -6.07242430438404e-08,
      -5.5379227697119596e-08,
      -5.387491235961337e-08,
      -5.1177083822736594e-08,
      -5.876065839905504e-08,
      -6.373629512410206e-08,
      -7.341460284743036e-08,
      -7.564034715772809e-08,
      -7.713361532850074e-08,
      -7.987141420839403e-08,
      -7.79189115569382e-08,
      -7.884032829394896e-08,
      -7.723644229556874e-08,
      -7.42096627050987e-08,
      -8.004267010493825e-08,
      -8.575861704408932e-08,
      -8.82741327786404e-08,
      -9.94775389619231e-08,
      -1.1074406008104788e-07,
      -1.1324871643303159e-07,
      -1.1298254007790891e-07,
      -1.1550646319945919e-07,
      -1.0986665683920301e-07,
      -1.1492865113783107e-07,
      -1.1905975078399738e-07,
      -1.2043574671012244e-07,
      -1.1904422527519269e-07,
      -1.1599365446651197e-07,
      -1.2286312030651742e-07,
      -1.4189069774247403e-07,
      -1.620964956086664e-07,
      -1.640792201881776e-07,
      -1.4925463464109424e-07,
      -1.311678474059516e-07,
      -1.142061786382305e-07,
      -9.393532390685382e-08,
      -8.17583997113859e-08,
      -6.653386404473431e-08,
      -6.356829217521844e-08,
      -5.851222595702741e-08,
      -7.04902844162295e-08,
      -7.660928107217268e-08,
      -8.740326962043275e-08,
      -9.529164263508974e-08,
      -1.0769845171087158e-07,
      -1.1275017879381062e-07,
      -9.822771089261352e-08,
      -7.85053669500509e-08,
      -7.507129999519004e-08,
      -7.512099608187702e-08,
      -5.5998379805760745e-08,
      -3.662982481902383e-08,
      -2.7374748287693964e-08,
      -2.2149890773937287e-08,
      -1.862054276097717e-08,
      -1.5402518690321748e-08,
      -9.635197891258157e-09,
      -4.930369151589578e-09,
      3.889063422175756e-09,
      1.8074902070178403e-08,
      2.436283629777628e-08,
      2.7204581578877715e-08,
      3.086635105449026e-08,
      3.5672975220195486e-08,
      3.559259153666961e-08,
      3.6116398819321396e-08,
      2.9706585434268683e-08,
      2.673008750639134e-08,
      2.6461311716922444e-08,
      1.9304155378318172e-08,
      2.3681495979001095e-08,
      2.7759978129527588e-08,
      2.3714222489854586e-08,
      2.0163137747901992e-08,
      1.533587616566309e-08,
      1.1898609012873563e-08,
      -1.041144390042759e-09,
      -1.37532547937002e-08,
      -3.624839168658993e-08,
      -5.129665492316202e-08,
      -4.435158819150248e-08,
      -4.561376574259149e-08,
      -4.9032208622485034e-08,
      -4.287001092080367e-08,
      -3.864727977782903e-08,
      -4.033954809704402e-08,
      -4.5982880504584055e-08,
      -4.2748593726733444e-08,
      -3.6842718128043625e-08,
      -3.0768823603503056e-08,
      -2.9332173581458912e-08,
      -3.257939493870857e-08,
      -4.258960151173771e-08,
      -5.307805666708509e-08,
      -6.612051309553234e-08,
      -7.952393767198381e-08,
      -8.380946951467984e-08,
      -1.006324059394476e-07,
      -1.0993422975104085e-07,
      -1.2505416144996058e-07,
      -1.2617072003111672e-07,
      -1.3813067434067238e-07,
      -1.394859788970978e-07,
      -1.4065790260152447e-07,
      -1.4325386611620383e-07,
      -1.469529171181061e-07,
      -1.468999594449804e-07,
      -1.402360495434257e-07,
      -1.486197930914564e-07,
      -1.565272771270789e-07,
      -1.563568038279306e-07,
      -1.4846014230962821e-07,
      -1.3882774032724815e-07,
      -1.4497940580291895e-07,
      -1.4708091048676486e-07,
      -1.4852413894062303e-07,
      -1.6154857640204592e-07,
      -1.6978751416199245e-07,
      -1.7930281292528503e-07,
      -1.9253708174265967e-07,
      -1.9489090837122133e-07,
      -2.014370059362148e-07,
      -2.000699525386184e-07,
      -2.0142261306567813e-07,
      -2.1346974663094727e-07,
      -2.1554468148985908e-07,
      -2.2280830904926582e-07,
      -2.2248005958424264e-07,
      -2.1016635017609302e-07,
      -2.058183218901108e-07,
      -2.0635316438986315e-07,
      -2.0562830022986957e-07,
      -1.980518669962706e-07,
      -2.037721923690718e-07,
      -2.1786609326243685e-07,
      -2.2746630857510542e-07,
      -2.3226738159253846e-07,
      -2.383752559282054e-07,
      -2.596087168576139e-07,
      -2.7656307077296077e-07,
      -2.8431441572503946e-07,
      -2.9168474471002323e-07,
      -2.8920655307888955e-07,
      -2.7682548423939803e-07,
      -2.9142710689212347e-07,
      -3.0315444711080387e-07,
      -3.179247608396457e-07,
      -3.363120433488878e-07,
      -3.486063103788273e-07,
      -3.4784374727099894e-07,
      -3.5964978939247716e-07,
      -3.695913323362378e-07,
      -3.7933044102554075e-07,
      -3.89685509310403e-07,
      -3.971685216303369e-07,
      -4.064064267174013e-07,
      -4.127911294301117e-07,
      -4.165153374739751e-07,
      -4.20679008363756e-07,
      -4.165998023918505e-07,
      -4.16759395887528e-07,
      -4.121703937523542e-07,
      -4.0993136269486664e-07,
      -4.0509531269380896e-07,
      -4.0831356523907023e-07,
      -4.053265519422984e-07,
      -3.951759381647263e-07,
      -3.7605955708500386e-07,
      -3.619243351004018e-07,
      -3.520391091951713e-07,
      -3.402127784694149e-07,
      -3.346910680021066e-07,
      -3.2981261604687065e-07,
      -3.240894830087902e-07,
      -3.1872993501034955e-07,
      -3.082460141796147e-07,
      -2.91174262678098e-07,
      -2.66164364648395e-07,
      -2.5608387637491434e-07,
      -2.439891684154454e-07,
      -2.1847159163913972e-07,
      -2.0019935944537615e-07,
      -2.0156020176312547e-07,
      -2.1365538560153607e-07,
      -2.2467907992429857e-07,
      -2.4823102610418183e-07,
      -2.600823292527973e-07,
      -2.716938374746884e-07,
      -2.8262642433326044e-07,
      -2.8564465418863583e-07,
      -2.8039427713787276e-07,
      -2.904861679826343e-07,
      -3.081005683476686e-07,
      -3.1780616419243897e-07,
      -3.127901699218995e-07,
      -3.112575633213829e-07,
      -3.163803095792662e-07,
      -2.8533246533157213e-07,
      -2.6865120892322886e-07,
      -2.71472301177185e-07,
      -2.5063967722276354e-07,
      -2.329401689182372e-07,
      -2.552204427620523e-07,
      -2.5109743785522655e-07,
      -2.46337266260341e-07,
      -2.527549662630709e-07,
      -2.0303230698229425e-07,
      -1.8605601702983485e-07,
      -1.9672610927422552e-07,
      -2.1731769678164536e-07,
      -2.1623094041655052e-07,
      -1.8974843940453747e-07,
      -1.7479077464098678e-07,
      -1.8386101714792895e-07,
      -1.8812807300654577e-07,
      -2.0237140235539793e-07,
      -1.8698970218602978e-07,
      -1.988700436925219e-07,
      -1.7287246122926198e-07,
      -1.8853825882316231e-07,
      -1.9828483371015532e-07,
      -1.8605265485882666e-07,
      -1.640212429897477e-07,
      -1.6551539924141204e-07,
      -1.6431927810317082e-07,
      -1.5383699025265322e-07,
      -1.5361858272020097e-07,
      -1.457344500034794e-07,
      -1.5056063556758314e-07,
      -1.4728487028248643e-07,
      -1.3347709368951207e-07,
      -1.2545428872253037e-07,
      -1.2385563791415695e-07,
      -1.4709071726508646e-07,
      -1.5001828757573372e-07,
      -1.4355483956248214e-07,
      -1.6017855491269332e-07,
      -1.7561633343926252e-07,
      -1.6419655243042812e-07,
      -1.4496307373112705e-07,
      -1.222403245139302e-07,
      -1.257483249400071e-07,
      -1.4543769910957237e-07,
      -1.8257391983672927e-07,
      -1.9825775735665184e-07,
      -1.9808998185131913e-07,
      -2.1175184065954359e-07,
      -2.235982301280751e-07,
      -2.246979505713935e-07,
      -2.2030172068624296e-07,
      -2.1467980531785792e-07,
      -2.1860596312103523e-07,
      -2.1965520117481008e-07,
      -2.0670178755773855e-07,
      -2.0294271171316405e-07,
      -2.2424140719870532e-07,
      -2.4075839574756645e-07,
      -2.463275285619091e-07,
      -2.492308505749164e-07,
      -2.568925865641871e-07,
      -2.5471006630758377e-07,
      -2.294265656955131e-07,
      -2.0540624231821062e-07,
      -1.908146103155426e-07,
      -2.120846166122546e-07,
      -2.2081046731869046e-07,
      -2.1945008447001385e-07,
      -2.1497291527870366e-07,
      -2.1758867541552558e-07,
      -2.154576591234811e-07,
      -2.1419194262705861e-07,
      -2.146900846593619e-07,
      -2.1359759741243813e-07,
      -1.9206598753838645e-07,
      -1.6886551868603782e-07,
      -1.5162213908812463e-07,
      -1.615587107723835e-07,
      -1.5965358635897186e-07,
      -1.3839194703784808e-07,
      -1.2514267633328376e-07,
      -1.214984062589491e-07,
      -1.2822693585929635e-07,
      -1.299427090207599e-07,
      -1.355770773126461e-07,
      -1.4595347736142292e-07,
      -1.685174630017956e-07,
      -2.028022395040224e-07,
      -1.9922836978915185e-07,
      -2.0619072254461349e-07,
      -2.119241186532989e-07,
      -2.0914643748016676e-07,
      -2.0300964727694505e-07,
      -1.7613041598870612e-07
    ],
    [
      4.964753853500386e-07,
      5.324419604194891e-07,
      5.677311609173126e-07,
      5.956163122178552e-07,
      5.988986001955413e-07,
      6.148956487422445e-07,
      6.443632419667048e-07,
      6.806444319236872e-07,
      7.022872197452795e-07,
      7.195314786559104e-07,
      7.106916986318518e-07,
      6.994633420922057e-07,
      6.8525971975145e-07,
      6.94997221175585e-07,
      6.72811315771846e-07,
      6.776899940597386e-07,
      6.390968969475819e-07,
      6.625504596114334e-07,
      6.575212388143867e-07,
      6.638861375561221e-07,
      6.528687648419039e-07,
      6.428284062461356e-07,
      6.517394513212754e-07,
      6.499853810169031e-07,
      6.311528692551674e-07,
      6.50043736044447e-07,
      6.411982401384081e-07,
      6.085430199864735e-07,
      5.875034593015863e-07,
      5.635979631070059e-07,
      5.535592603962579e-07,
      5.645795509672471e-07,
      5.851920654941969e-07,
      5.993106507393342e-07,
      5.797755429211967e-07,
      5.559343335091642e-07,
      5.547992458392742e-07,
      5.575913125213805e-07,
      5.553745942233602e-07,
      5.601104664677418e-07,
      5.376334029705038e-07,
      5.452942524399261e-07,
      5.351423392697019e-07,
      5.560631644600909e-07,
      5.490673028363589e-07,
      5.535109547268705e-07,
      5.503056193124039e-07,
      5.400203338424258e-07,
      5.107493781882984e-07,
      5.025520710638396e-07,
      4.861252382680906e-07,
      4.832045275470789e-07,
      4.916519966781385e-07,
      4.944553988400547e-07,
      4.981510750691332e-07,
      5.003166258408347e-07,
      5.045843205362818e-07,
      5.235047109999213e-07,
      5.388000353271833e-07,
      5.571360908330018e-07,
      5.405958496093187e-07,
      5.285725996875505e-07,
      5.342692131015475e-07,
      5.350910255853518e-07,
      5.305587687766079e-07,
      5.356264318171336e-07,
      5.528504832517679e-07,
      5.56654031749778e-07,
      5.86787206588227e-07,
      6.079121089629681e-07,
      6.218843001646202e-07,
      6.120717352937036e-07,
      6.19067299173132e-07,
      6.172965871698509e-07,
      5.855215834834636e-07,
      5.583830281039421e-07,
      5.547677792020438e-07,
      5.439720389025333e-07,
      5.37991280676862e-07,
      5.164375558325622e-07,
      4.983650147888773e-07,
      5.014011286815177e-07,
      4.960823763952708e-07,
      4.823694100666385e-07,
      4.891194059287683e-07,
      5.196674225590178e-07,
      5.430028354761515e-07,
      5.659393425496737e-07,
      5.938080294989758e-07,
      6.056053047936676e-07,
      6.10140959099259e-07,
      6.099320196235107e-07,
      6.112261421701332e-07,
      6.072597684530259e-07,
      6.040981239849584e-07,
      5.906892799554428e-07,
      5.812151259147539e-07,
      5.764486664134209e-07,
      5.655073455708062e-07,
      5.384856393548509e-07,
      5.563584180538769e-07,
      5.533851044536594e-07,
      5.774471774303723e-07,
      5.693259626657386e-07,
      5.815106099158674e-07,
      5.644622622080719e-07,
      5.429864046457331e-07,
      5.020342152692633e-07,
      4.828622199299252e-07,
      4.714120225928917e-07,
      4.71522718708455e-07,
      4.6552016848637296e-07,
      4.617458269573245e-07,
      4.5374896676346876e-07,
      4.317894833495078e-07,
      3.857325209326469e-07,
      3.6680813563766784e-07,
      3.830508610352412e-07,
      4.0341585592131334e-07,
      4.1390762405608956e-07,
      4.1082334585340807e-07,
      4.1691805049907867e-07,
      4.450175467222363e-07,
      4.572705839806119e-07,
      4.533249489660274e-07,
      4.5398197747980003e-07,
      4.5240168103273074e-07,
      4.5822223658269434e-07,
      4.440720485456332e-07,
      4.532029210320392e-07,
      4.6153621603649974e-07,
      4.426269449849786e-07,
      4.413453921105481e-07,
      4.623256334196186e-07,
      4.691279091002461e-07,
      4.5700960151171857e-07,
      4.5491621924270315e-07,
      4.448514889509999e-07,
      3.9924651847341466e-07,
      3.671365367436926e-07,
      3.4929984437951814e-07,
      3.6873603330734666e-07,
      3.789049665960678e-07,
      3.716609617175627e-07,
      3.4936875041999173e-07,
      3.2734350570505834e-07,
      3.135411467135324e-07,
      2.9446962793417055e-07,
      2.788596004954418e-07,
      2.6870431435528415e-07,
      2.622653554234402e-07,
      2.63196382775739e-07,
      2.63382138448229e-07,
      2.7141342874982635e-07,
      2.835406715266796e-07,
      2.9808384436883896e-07,
      3.174802787642512e-07,
      3.261560783305216e-07,
      3.430428610855794e-07,
      3.5523498038069525e-07,
      3.6564917992232653e-07,
      3.7270109711394685e-07,
      3.7842501913938363e-07,
      3.91308575919151e-07,
      4.0408226471298285e-07,
      4.23275977187093e-07,
      4.242148260438135e-07,
      4.247285244084589e-07,
      4.148402811710884e-07,
      4.087494419044697e-07,
      4.204737510840793e-07,
      4.346754354350265e-07,
      4.3956132415114184e-07,
      3.7654013158690067e-07,
      3.481720205782722e-07,
      3.6843489327206173e-07,
      4.1641944516411593e-07,
      4.534054059236514e-07,
      4.607340527157072e-07,
      4.5864025611466344e-07,
      4.290309651229032e-07,
      4.1670379837025523e-07,
      4.0502400979797915e-07,
      3.8940440536468074e-07,
      3.772768973533385e-07,
      3.7985702183466416e-07,
      3.870372382675852e-07,
      3.8727485267833757e-07,
      4.487766799657673e-07,
      4.757346608494243e-07,
      4.963293041071929e-07,
      5.294577806865629e-07,
      5.526781612766575e-07,
      5.549456165312274e-07,
      5.78435806051879e-07,
      6.030859517986268e-07,
      5.961191739739367e-07,
      5.750252855591527e-07,
      5.331869311018974e-07,
      5.447247801075844e-07,
      5.02626405332585e-07,
      5.009069252891055e-07,
      5.211236801227586e-07,
      5.373540933020791e-07,
      5.563538925830135e-07,
      5.690414324377631e-07,
      5.565032343085437e-07,
      5.438290092911167e-07,
      6.017053549841705e-07,
      5.256497595524116e-07,
      4.522472015314783e-07,
      4.989610342015523e-07,
      5.372915310302211e-07,
      5.544944835428826e-07,
      4.767602371090012e-07,
      4.6019053307326514e-07,
      4.6777401271000367e-07,
      4.4672267454310903e-07,
      4.483614741826632e-07,
      4.3650369312684e-07,
      4.384207794516176e-07,
      4.254752067417708e-07,
      5.022682497861554e-07,
      5.107419149823244e-07,
      4.869835680623854e-07,
      4.696480108343004e-07,
      4.886365574077514e-07,
      4.968460808572507e-07,
      4.799393167083994e-07,
      4.6472215292425897e-07,
      4.6548283629774285e-07,
      4.5776900943814866e-07,
      4.680516474573156e-07,
      4.947642934935583e-07,
      4.405376721624019e-07,
      4.2390606027027905e-07,
      4.924595641934109e-07,
      5.011718949196103e-07,
      5.292276693896404e-07,
      5.823926154089906e-07,
      6.371257021894051e-07,
      6.689698661652621e-07,
      6.811888523350051e-07,
      6.666599381608317e-07,
      6.701551277100385e-07,
      6.723872169344086e-07,
      6.937227018431329e-07,
      6.755156424967788e-07,
      6.482900506412009e-07,
      6.058252058620111e-07,
      5.918531663040175e-07,
      5.831273121082106e-07,
      5.739656329806481e-07,
      5.398373131919796e-07,
      5.28549123019202e-07,
      5.20716630188896e-07,
      4.970609983831096e-07,
      5.169173879137184e-07,
      5.767490714856064e-07,
      6.227863930150535e-07,
      6.513932712303971e-07,
      6.835297909398014e-07,
      7.10939378478904e-07,
      7.183650676382855e-07,
      6.768726636986379e-07,
      6.298362978347333e-07,
      6.229775035908919e-07,
      6.962894318959579e-07,
      7.251093087964838e-07,
      7.168333143498691e-07,
      7.07781864002531e-07,
      7.287713811125605e-07,
      7.363080465168265e-07,
      7.369277005612158e-07,
      7.338717818390192e-07,
      7.252104494187571e-07,
      6.79652835626998e-07,
      6.162643460723623e-07,
      5.506541998751165e-07,
      5.587798962069417e-07,
      5.746919394329074e-07,
      5.224137819344783e-07,
      4.787906871202055e-07,
      5.172074529597063e-07,
      5.230401641858166e-07,
      5.429747327615473e-07,
      5.338534211593936e-07,
      5.267054886171671e-07,
      5.389070562358055e-07,
      6.331756183225823e-07,
      6.190307447229586e-07,
      5.861519040247854e-07,
      5.567758949803859e-07,
      5.437993973391218e-07,
      5.289774479358352e-07,
      4.590107629075337e-07
    ],
    [
      -2.785056228848642e-07,
      -2.938330374667793e-07,
      -2.876711334665498e-07,
      -2.9325084329568353e-07,
      -2.8537943160872127e-07,
      -2.8738242795037206e-07,
      -2.8999202269924396e-07,
      -3.091546601408799e-07,
      -3.185487283882982e-07,
      -3.27490343829199e-07,
      -3.199286852820395e-07,
      -3.1418488531046877e-07,
      -3.096291718005656e-07,
      -3.10899393777077e-07,
      -3.0107744463733087e-07,
      -3.006351551223403e-07,
      -2.82938792056665e-07,
      -2.9133901170820517e-07,
      -2.903579377815532e-07,
      -2.9522967600064414e-07,
      -3.016118752094335e-07,
      -3.1128722603533e-07,
      -3.2481979267707976e-07,
      -3.3178545773477246e-07,
      -3.3183914051425196e-07,
      -3.4491449016525916e-07,
      -3.4775716495309356e-07,
      -3.3665357829484465e-07,
      -3.2368245484035447e-07,
      -3.106449130888117e-07,
      -3.139251088098722e-07,
      -3.3783898373603053e-07,
      -3.754108677402422e-07,
      -4.0298550330712433e-07,
      -3.853087978510525e-07,
      -3.517192520850454e-07,
      -3.304140113937494e-07,
      -3.141001251572007e-07,
      -2.931469604407593e-07,
      -2.836662076600104e-07,
      -2.638652331324713e-07,
      -2.6360873929907743e-07,
      -2.5564383282296594e-07,
      -2.7518763961004147e-07,
      -2.826573833410798e-07,
      -3.087569614628179e-07,
      -3.2847974825621193e-07,
      -3.468902843626989e-07,
      -3.251485686772075e-07,
      -2.8749408356067967e-07,
      -2.606989411068614e-07,
      -2.62767488166323e-07,
      -2.7357654332435353e-07,
      -2.608608529872904e-07,
      -2.475837722274564e-07,
      -2.4713248873045293e-07,
      -2.496403251888888e-07,
      -2.56362624451789e-07,
      -2.6191567249888544e-07,
      -2.6952980812143895e-07,
      -2.638847319302022e-07,
      -2.5620342803222936e-07,
      -2.5157318755544137e-07,
      -2.4873175686939625e-07,
      -2.4578078802176967e-07,
      -2.463225766436815e-07,
      -2.5063991442633294e-07,
      -2.5245055599823443e-07,
      -2.6612753828700264e-07,
      -2.7842251634104564e-07,
      -2.8918630634484803e-07,
      -2.8819425424070947e-07,
      -2.958674057895008e-07,
      -2.934801644065655e-07,
      -2.7965853091772655e-07,
      -2.712674501312687e-07,
      -2.7118634510491706e-07,
      -2.6521850538796403e-07,
      -2.614975243509632e-07,
      -2.56433468818597e-07,
      -2.546810663408083e-07,
      -2.7584734926093405e-07,
      -2.8653212077767373e-07,
      -2.683310018612657e-07,
      -2.657084469307214e-07,
      -2.7572048522614694e-07,
      -2.681228611260988e-07,
      -2.647298236687797e-07,
      -2.685000665825674e-07,
      -2.7910719742681377e-07,
      -2.823867367852216e-07,
      -2.823832114108611e-07,
      -2.826640216476647e-07,
      -2.8284562179025614e-07,
      -2.8771102739695595e-07,
      -2.8326513557086024e-07,
      -2.785446584360285e-07,
      -2.7218703110590366e-07,
      -2.5421387737753146e-07,
      -2.346436813528082e-07,
      -2.3800771950058963e-07,
      -2.3693792589812337e-07,
      -2.4610486022288244e-07,
      -2.442255795349012e-07,
      -2.5242970838552614e-07,
      -2.486717169178199e-07,
      -2.4385753477895396e-07,
      -2.401775424424241e-07,
      -2.410876341643613e-07,
      -2.4666293196549194e-07,
      -2.423915603708392e-07,
      -2.411601612907725e-07,
      -2.395018454274296e-07,
      -2.3361827846923364e-07,
      -2.2489220489479271e-07,
      -2.1828019942146144e-07,
      -2.32738864220828e-07,
      -2.455013621268471e-07,
      -2.3940512522450174e-07,
      -2.449427009844887e-07,
      -2.531116092516526e-07,
      -2.6458952079993804e-07,
      -2.9068164543217076e-07,
      -2.9529580127175916e-07,
      -2.8744753695329144e-07,
      -2.929633414593704e-07,
      -2.958350285625924e-07,
      -3.1362760895509343e-07,
      -3.196984642981524e-07,
      -3.2860915554740445e-07,
      -3.289224490578741e-07,
      -3.0837213666363673e-07,
      -3.1026622215310744e-07,
      -3.257458137131526e-07,
      -3.2956358304608274e-07,
      -3.108909207720064e-07,
      -3.0379963211411556e-07,
      -3.0823671364352825e-07,
      -2.9775168333889105e-07,
      -2.687793484341477e-07,
      -2.5858227513878494e-07,
      -2.775586123563416e-07,
      -2.9148211740743483e-07,
      -2.9388518049205566e-07,
      -2.900870828755002e-07,
      -2.783809322415034e-07,
      -2.6786964709176063e-07,
      -2.699542172695614e-07,
      -2.778357515921322e-07,
      -2.9012240949506335e-07,
      -3.0692602068800947e-07,
      -3.200014494303662e-07,
      -3.217313490109087e-07,
      -3.3497065166358665e-07,
      -3.499619184062193e-07,
      -3.669347995616342e-07,
      -3.865937973767454e-07,
      -3.9633324846656367e-07,
      -4.101052443059119e-07,
      -4.1592942243832765e-07,
      -4.1823623327477856e-07,
      -4.1905541144678243e-07,
      -4.1174444674609207e-07,
      -4.12126085613291e-07,
      -4.1305175464142636e-07,
      -4.251778606950711e-07,
      -4.2823663302136523e-07,
      -4.4339881596667837e-07,
      -4.4737435123187894e-07,
      -4.5510424164622036e-07,
      -4.5330263125364473e-07,
      -4.600114431362728e-07,
      -4.812104066295422e-07,
      -4.74926293693398e-07,
      -4.86112268142973e-07,
      -5.145704252434291e-07,
      -5.483442441527891e-07,
      -5.862791704886101e-07,
      -6.217086870226629e-07,
      -6.547194477137601e-07,
      -6.452105699582399e-07,
      -6.367240464512556e-07,
      -6.188400791281105e-07,
      -5.759917323964989e-07,
      -5.289238553165098e-07,
      -4.92247094607546e-07,
      -4.67014238138331e-07,
      -4.976397732386394e-07,
      -5.820683588459762e-07,
      -6.215849951465049e-07,
      -6.547631802382329e-07,
      -6.889790930612362e-07,
      -7.055457114685319e-07,
      -7.059006016586213e-07,
      -7.40429068126937e-07,
      -7.839563949877201e-07,
      -7.842563332076997e-07,
      -7.575381649329974e-07,
      -7.112177192660812e-07,
      -7.127735781412619e-07,
      -6.266992400441738e-07,
      -5.784109078776264e-07,
      -5.79917922423829e-07,
      -5.508371356685715e-07,
      -5.329931279019389e-07,
      -5.599782798135388e-07,
      -5.343135341296987e-07,
      -5.241985331518093e-07,
      -5.552147745577007e-07,
      -4.585203461318712e-07,
      -3.899817527991649e-07,
      -4.214494287758772e-07,
      -4.5894332362071394e-07,
      -4.652540347813193e-07,
      -4.0860898418497026e-07,
      -4.0987304968462026e-07,
      -4.235935281000688e-07,
      -4.257770904290727e-07,
      -4.418735527551062e-07,
      -4.0971679878028974e-07,
      -4.27336495620302e-07,
      -3.976972415575425e-07,
      -4.7091098248777513e-07,
      -4.834111475500172e-07,
      -4.495939157906704e-07,
      -4.236668124274615e-07,
      -4.3411357824766055e-07,
      -4.3957800418652034e-07,
      -4.1595596453711476e-07,
      -4.154192490526257e-07,
      -4.101652134510634e-07,
      -3.984134606413329e-07,
      -3.985263000506494e-07,
      -4.04993700086279e-07,
      -3.583566640304856e-07,
      -3.4793513384360554e-07,
      -3.907953769915717e-07,
      -3.9281054011818453e-07,
      -4.267836503457639e-07,
      -4.861546456965507e-07,
      -5.311165340810221e-07,
      -5.384324863580526e-07,
      -5.2059283149117e-07,
      -4.752021152630331e-07,
      -4.847192922141112e-07,
      -4.994114936543206e-07,
      -5.2467206278023e-07,
      -5.049887051389885e-07,
      -4.828260786455967e-07,
      -4.733479841175311e-07,
      -4.728374149415258e-07,
      -4.680392241133651e-07,
      -4.582068930197902e-07,
      -4.261993587063145e-07,
      -4.160975761593375e-07,
      -4.164591987971679e-07,
      -4.0706404989702654e-07,
      -4.2839601614276147e-07,
      -4.716961425700677e-07,
      -4.977216138458632e-07,
      -5.149011702104933e-07,
      -5.360299048700909e-07,
      -5.59367587984725e-07,
      -5.685459226275361e-07,
      -5.369931181923571e-07,
      -4.992824968625069e-07,
      -4.878834440071955e-07,
      -5.62670582811551e-07,
      -5.92167562336295e-07,
      -5.960523998976631e-07,
      -5.929329707827394e-07,
      -6.135089545633325e-07,
      -6.173075536748344e-07,
      -6.21472227040962e-07,
      -6.282546036370303e-07,
      -6.280332891806842e-07,
      -5.822061364845188e-07,
      -5.258974407112327e-07,
      -4.758746874928099e-07,
      -4.96851594015066e-07,
      -5.038184907775868e-07,
      -4.3916998684542076e-07,
      -3.9611104562256286e-07,
      -4.299733247671124e-07,
      -4.6056552209958964e-07,
      -4.789398555969723e-07,
      -5.04527743759263e-07,
      -5.1098522076623e-07,
      -5.30027527542926e-07,
      -6.257823639931923e-07,
      -6.299062988680637e-07,
      -6.295400776092535e-07,
      -6.221886742262978e-07,
      -6.082251280745213e-07,
      -5.891943305418065e-07,
      -4.944336025502962e-07
    ],
    [
      -1.0443523428511449e-07,
      -1.1433577479604728e-07,
      -1.1610740356975707e-07,
      -1.1924552249815508e-07,
      -1.1719804540033272e-07,
      -1.1497574719288993e-07,
      -1.1304063646762188e-07,
      -1.1534839485083517e-07,
      -1.167916629149083e-07,
      -1.1863506862685881e-07,
      -1.1698815029458986e-07,
      -1.1673805742072634e-07,
      -1.164663733987323e-07,
      -1.1865419727567432e-07,
      -1.1682185768975145e-07,
      -1.168654920762812e-07,
      -1.104015618719645e-07,
      -1.1378963361684589e-07,
      -1.1089583391040383e-07,
      -1.1058181887383596e-07,
      -1.0925613840933872e-07,
      -1.0796077245106845e-07,
      -1.0851411519201208e-07,
      -1.0771650006657373e-07,
      -1.0554574477378177e-07,
      -1.0440558299931515e-07,
      -1.0226575596294305e-07,
      -9.499506887518264e-08,
      -9.220502101388732e-08,
      -9.117454068857965e-08,
      -9.03116903789982e-08,
      -9.486964865469528e-08,
      -1.0517663889371117e-07,
      -1.1254199683673132e-07,
      -1.0408161281465237e-07,
      -8.813565049814331e-08,
      -7.989400586899698e-08,
      -7.794052764781188e-08,
      -7.904422060833307e-08,
      -8.167332265695192e-08,
      -8.148595033510637e-08,
      -8.424546823898525e-08,
      -8.703547956696165e-08,
      -9.336242211044883e-08,
      -9.490157873321194e-08,
      -9.625705757916213e-08,
      -9.765378885206875e-08,
      -1.0294688983305742e-07,
      -9.996598919509597e-08,
      -8.979815793813229e-08,
      -7.876420774750634e-08,
      -7.472546721084715e-08,
      -7.568494104689111e-08,
      -7.042014872616248e-08,
      -6.641320630947812e-08,
      -6.478584261223313e-08,
      -6.501120063575803e-08,
      -6.887923942346087e-08,
      -7.279957796794717e-08,
      -7.589824527016579e-08,
      -7.37454196390811e-08,
      -7.000339723813032e-08,
      -6.619116962247724e-08,
      -6.402778265696761e-08,
      -6.167857805020383e-08,
      -6.05083664775799e-08,
      -6.08261131743226e-08,
      -6.119167146219103e-08,
      -6.347775421267649e-08,
      -6.830322207936217e-08,
      -6.981677284007565e-08,
      -6.838775556767088e-08,
      -7.293406449809715e-08,
      -7.174410182629704e-08,
      -6.597603345322796e-08,
      -6.402983167940348e-08,
      -6.491376831922639e-08,
      -6.502912029993134e-08,
      -6.555847082943107e-08,
      -6.405384498444594e-08,
      -6.311728797441768e-08,
      -6.764874090715708e-08,
      -7.09464835501328e-08,
      -6.704860079986404e-08,
      -6.54103008144802e-08,
      -6.906351202668954e-08,
      -7.239463789797565e-08,
      -7.785052924838354e-08,
      -9.040176480839677e-08,
      -1.017476079965972e-07,
      -1.2135497552387575e-07,
      -1.3180523917547688e-07,
      -1.4006056184282525e-07,
      -1.4744914466430836e-07,
      -1.5205828735818771e-07,
      -1.5543815583075165e-07,
      -1.5817716635282934e-07,
      -1.6107286963639709e-07,
      -1.6709212738669326e-07,
      -1.6377757281502459e-07,
      -1.6910905705060146e-07,
      -1.6925215350530525e-07,
      -1.704784243253284e-07,
      -1.6581355195797784e-07,
      -1.6884611018353576e-07,
      -1.579813566142403e-07,
      -1.5064595261471303e-07,
      -1.4022693610824386e-07,
      -1.3793926332714056e-07,
      -1.3552151304094287e-07,
      -1.3400206247912135e-07,
      -1.376138100544132e-07,
      -1.4129114839850055e-07,
      -1.4094256943028587e-07,
      -1.3297426995218082e-07,
      -1.173273329928519e-07,
      -1.132293870933719e-07,
      -1.1702869680193824e-07,
      -1.2228358384192627e-07,
      -1.269937200822561e-07,
      -1.2696039210430974e-07,
      -1.2946252665764885e-07,
      -1.3634803437008374e-07,
      -1.3824751242232955e-07,
      -1.3988013218379816e-07,
      -1.3597080495008377e-07,
      -1.3525361068266778e-07,
      -1.4273015380369218e-07,
      -1.4578482756297244e-07,
      -1.548564360426023e-07,
      -1.5711791830210644e-07,
      -1.5017137651475785e-07,
      -1.4566260698160014e-07,
      -1.4201618392510407e-07,
      -1.3877623146661413e-07,
      -1.3414326050753934e-07,
      -1.3553065350478427e-07,
      -1.3596072334247224e-07,
      -1.3589348702320908e-07,
      -1.3668980971261918e-07,
      -1.3761724756736448e-07,
      -1.495614809696353e-07,
      -1.6098020096418506e-07,
      -1.6989318350698146e-07,
      -1.8192728850838952e-07,
      -1.8808121625616647e-07,
      -1.8771826119759432e-07,
      -2.0307343629697176e-07,
      -2.1175525480929983e-07,
      -2.1781004827004316e-07,
      -2.205800030219407e-07,
      -2.1573808354943364e-07,
      -2.103678560738883e-07,
      -2.0329405143467242e-07,
      -1.907066460811433e-07,
      -1.7491642495678044e-07,
      -1.534328267504184e-07,
      -1.4619659332502671e-07,
      -1.3462276141514539e-07,
      -1.2497959020775857e-07,
      -1.1798538842812272e-07,
      -1.1455822183222506e-07,
      -1.0986363639006053e-07,
      -1.1055674540021488e-07,
      -1.1235087453274344e-07,
      -1.192728270308062e-07,
      -1.2293952943772733e-07,
      -1.3130607972925687e-07,
      -1.3502067406420768e-07,
      -1.3463635260200137e-07,
      -1.3399841370038721e-07,
      -1.3623403442199313e-07,
      -1.437842722688551e-07,
      -1.438410488563925e-07,
      -1.4695068027914347e-07,
      -1.5598516693157864e-07,
      -1.666880312370567e-07,
      -1.7503369919376863e-07,
      -1.805544214742894e-07,
      -1.9065768466272284e-07,
      -1.9290681636609793e-07,
      -1.9653660072798788e-07,
      -1.9069314066621093e-07,
      -1.7496655076255752e-07,
      -1.5834771746342564e-07,
      -1.4352164049592672e-07,
      -1.361316298755363e-07,
      -1.3827038008582065e-07,
      -1.4921782898793425e-07,
      -1.5253537543853005e-07,
      -1.6183067669818343e-07,
      -1.7226029888479617e-07,
      -1.7702530852716132e-07,
      -1.7652760220529293e-07,
      -1.8461879118244479e-07,
      -1.9197390712270106e-07,
      -1.8897633635106007e-07,
      -1.7763859244775215e-07,
      -1.6803075745845256e-07,
      -1.6135622248186986e-07,
      -1.3497669538600497e-07,
      -1.2296326086889294e-07,
      -1.2241823741668004e-07,
      -1.1599780941671792e-07,
      -1.0406995690787214e-07,
      -1.057878729649402e-07,
      -1.1116299706486152e-07,
      -1.2101085105217245e-07,
      -1.2618127504733054e-07,
      -1.1116439066783766e-07,
      -1.0096176534441922e-07,
      -1.091283562615524e-07,
      -1.199689800610123e-07,
      -1.209069535620921e-07,
      -1.0461938366591032e-07,
      -9.835142186458018e-08,
      -9.841754512107632e-08,
      -9.35895348227371e-08,
      -1.0278538213103207e-07,
      -1.0358897549120275e-07,
      -1.0509953966289611e-07,
      -1.0043283009414876e-07,
      -1.1673062157006243e-07,
      -1.2445255464403664e-07,
      -1.2064939062354235e-07,
      -1.09452056997883e-07,
      -1.0783320526790313e-07,
      -1.0987626200720877e-07,
      -1.0885838802483647e-07,
      -1.1280240589668318e-07,
      -1.1314023679678883e-07,
      -1.1782515203467634e-07,
      -1.1414280616389232e-07,
      -1.0773768700351113e-07,
      -1.0025792889955426e-07,
      -8.560799882045182e-08,
      -1.0077164062607094e-07,
      -1.052088566654103e-07,
      -1.0646169050587149e-07,
      -1.1818714022375355e-07,
      -1.261346683825577e-07,
      -1.2602626370944673e-07,
      -1.2320945754762416e-07,
      -1.1386551511775388e-07,
      -1.1568096491542955e-07,
      -1.220969629551561e-07,
      -1.3324400424398505e-07,
      -1.3739055773178757e-07,
      -1.35877272140722e-07,
      -1.3192785543059904e-07,
      -1.3257321161148275e-07,
      -1.2840215697402015e-07,
      -1.254898187394851e-07,
      -1.2339454406143468e-07,
      -1.2543688513067822e-07,
      -1.2389036210341142e-07,
      -1.1461855243473223e-07,
      -1.052806811185417e-07,
      -1.1047703275143878e-07,
      -1.1764863259864368e-07,
      -1.238760868609191e-07,
      -1.258174950620579e-07,
      -1.281115356505939e-07,
      -1.243844500552663e-07,
      -1.1097774736893628e-07,
      -1.0140649050642919e-07,
      -9.762942659333742e-08,
      -1.0610673312386247e-07,
      -1.1039577228198104e-07,
      -1.0864754076492215e-07,
      -1.0570503859453941e-07,
      -1.0796458485710527e-07,
      -1.0802753825727244e-07,
      -1.0990177687876505e-07,
      -1.1320740429950307e-07,
      -1.1556470954843977e-07,
      -1.0396529120917896e-07,
      -8.941293647146432e-08,
      -7.806196142492486e-08,
      -8.498600449406397e-08,
      -9.186930134549592e-08,
      -8.629577638058556e-08,
      -7.257485766921221e-08,
      -7.15712112709244e-08,
      -6.170020823834626e-08,
      -5.050657511166796e-08,
      -3.5603582980685996e-08,
      -3.0632082523836726e-08,
      -3.236537873485742e-08,
      -3.480911039565484e-08,
      -2.255946267183269e-08,
      -1.5887486088934123e-08,
      -1.4357723947259659e-08,
      -1.3537458377180795e-08,
      -1.5999047607322238e-08,
      -3.0366389080865e-08
    ],
    [
      -1.1195786848758102e-07,
      -1.2106717887954646e-07,
      -1.3179125947670337e-07,
      -1.4017325546845506e-07,
      -1.48646649087912e-07,
      -1.618857283468019e-07,
      -1.823985843619373e-07,
      -1.9391308640193505e-07,
      -1.985790004854775e-07,
      -1.9455181761928422e-07,
      -1.9013786344092497e-07,
      -1.818193170896531e-07,
      -1.7194430517179127e-07,
      -1.7356301814576825e-07,
      -1.613633511794855e-07,
      -1.631746283426379e-07,
      -1.4922759599489708e-07,
      -1.5595880083708287e-07,
      -1.529217261423473e-07,
      -1.555141132552846e-07,
      -1.4720262222484418e-07,
      -1.399424130057153e-07,
      -1.442426770309007e-07,
      -1.4443904026440478e-07,
      -1.3707480787728906e-07,
      -1.5193762941517042e-07,
      -1.4896661075503842e-07,
      -1.3346396822285302e-07,
      -1.2468557153608682e-07,
      -1.255664760274401e-07,
      -1.3930080002057755e-07,
      -1.5583315154392476e-07,
      -1.6665755296941446e-07,
      -1.6843882182642686e-07,
      -1.644378352810815e-07,
      -1.5802151224956456e-07,
      -1.5808924559745876e-07,
      -1.5885389457043303e-07,
      -1.6293454991844992e-07,
      -1.673149149929869e-07,
      -1.636831690737302e-07,
      -1.6381774545822044e-07,
      -1.4880454858088997e-07,
      -1.4168482681202274e-07,
      -1.288974110548851e-07,
      -1.086792416682537e-07,
      -9.398013025360101e-08,
      -9.679831851975598e-08,
      -1.0562407184032532e-07,
      -1.0465499131048661e-07,
      -9.362020014960993e-08,
      -9.073514829942962e-08,
      -1.071382921095582e-07,
      -1.1929424036311938e-07,
      -1.2688617164501855e-07,
      -1.291912444298841e-07,
      -1.3017159505580936e-07,
      -1.3460180898138055e-07,
      -1.384257014247553e-07,
      -1.429561989669001e-07,
      -1.3805169713975041e-07,
      -1.3798369988068072e-07,
      -1.4635610309664553e-07,
      -1.5124795592981861e-07,
      -1.545751876543461e-07,
      -1.5936304488218637e-07,
      -1.6750948173523446e-07,
      -1.699996814722713e-07,
      -1.7781330391020905e-07,
      -1.840859550118986e-07,
      -1.8507152975843655e-07,
      -1.8056425043333738e-07,
      -1.8449438145873511e-07,
      -1.845367105558494e-07,
      -1.7422160277904934e-07,
      -1.656945749872735e-07,
      -1.6450912728945055e-07,
      -1.586441185218163e-07,
      -1.5541961393777447e-07,
      -1.4368846389808221e-07,
      -1.326822644714028e-07,
      -1.2784051425570836e-07,
      -1.22910570077166e-07,
      -1.2085909689014869e-07,
      -1.1677778175039688e-07,
      -1.206224368998365e-07,
      -1.2679740734381392e-07,
      -1.2699078918584314e-07,
      -1.27776331049301e-07,
      -1.2788087064749918e-07,
      -1.3383257336232453e-07,
      -1.3806041820777196e-07,
      -1.422856817151021e-07,
      -1.461275885447546e-07,
      -1.4955148309010103e-07,
      -1.470037849756899e-07,
      -1.4447254701398348e-07,
      -1.4228817537851918e-07,
      -1.417206301965737e-07,
      -1.3406409618210923e-07,
      -1.3707206474455948e-07,
      -1.349202257203341e-07,
      -1.4402069330709618e-07,
      -1.3962371099266852e-07,
      -1.4557064477148407e-07,
      -1.4608032499928363e-07,
      -1.417447096184111e-07,
      -1.2923998192585944e-07,
      -1.234686737305426e-07,
      -1.1553327791161385e-07,
      -1.1140581382120627e-07,
      -1.0265676776920619e-07,
      -1.0040400160990106e-07,
      -1.0237661373973705e-07,
      -9.870497067122584e-08,
      -8.018774879099099e-08,
      -6.781861504418866e-08,
      -6.118394974964811e-08,
      -5.5413786751437286e-08,
      -4.907054068065904e-08,
      -4.000384713113689e-08,
      -3.9610169426100116e-08,
      -4.416643679309948e-08,
      -4.348305396299772e-08,
      -2.2016311576011e-08,
      -7.087691651663312e-09,
      2.6973405186175074e-09,
      1.4665983773494745e-08,
      1.0486783422343118e-08,
      -8.322265898666703e-10,
      1.2182363417139827e-09,
      1.622342678203476e-08,
      2.7714037281085946e-08,
      4.445463957855559e-08,
      5.485502127371817e-08,
      5.077633309890015e-08,
      5.189260296311665e-08,
      5.245243154188105e-08,
      5.2791246452142e-08,
      5.986393550405733e-08,
      6.784503819294307e-08,
      7.093974223652483e-08,
      7.251789186699764e-08,
      7.33548644580813e-08,
      7.550429611731128e-08,
      7.701798465331873e-08,
      7.368152375402227e-08,
      7.260322834672114e-08,
      6.759098062328588e-08,
      6.067696299775532e-08,
      4.8771232447358044e-08,
      3.587575914170076e-08,
      3.022349348045082e-08,
      1.9674828597723808e-08,
      7.82482300518448e-09,
      -2.2502370070920346e-09,
      -1.2479044585737801e-08,
      -1.5397668204276365e-08,
      -1.8852283043086415e-08,
      -2.2913953004072896e-08,
      -2.549824686663088e-08,
      -2.6204370907409565e-08,
      -2.8948527812596973e-08,
      -3.3647815035566326e-08,
      -3.948601772831744e-08,
      -4.497504073557669e-08,
      -4.6574980496159375e-08,
      -4.628005609881345e-08,
      -4.830907188274711e-08,
      -5.683580374469043e-08,
      -7.04690989299238e-08,
      -8.596401873977707e-08,
      -1.0151715406021778e-07,
      -9.581353816684805e-08,
      -9.746319792816979e-08,
      -1.1502883670433902e-07,
      -1.3944202886393124e-07,
      -1.543838839887043e-07,
      -1.5299712685851544e-07,
      -1.4875500907662365e-07,
      -1.3330209010916555e-07,
      -1.311509657508762e-07,
      -1.28024507938266e-07,
      -1.1854012907625894e-07,
      -1.0823429550161855e-07,
      -8.188987622935192e-08,
      -6.244781092246723e-08,
      -8.325046299606505e-08,
      -9.106106137077513e-08,
      -8.24050506383263e-08,
      -8.711426619325469e-08,
      -9.260885207659949e-08,
      -9.955667534384935e-08,
      -1.0347538780494132e-07,
      -1.1514895878138411e-07,
      -1.1704090517457147e-07,
      -1.0780707473238612e-07,
      -9.111957800324873e-08,
      -9.042925302354185e-08,
      -8.032298047755447e-08,
      -6.123331113732776e-08,
      -4.2621257916900553e-08,
      -3.1231895388627307e-08,
      -2.1921835231927987e-08,
      -7.0515777483684105e-09,
      -1.061845647603391e-08,
      -1.806865873886432e-08,
      -3.397599423739538e-08,
      -2.4592214067105813e-08,
      -3.316094040743327e-08,
      -4.1260483530840225e-08,
      -4.5193230188529795e-08,
      -3.5741083477543443e-08,
      -3.212712540875314e-08,
      -3.0578024330881925e-08,
      -2.473723369359576e-08,
      -2.5234421032458284e-08,
      -1.924915395165704e-08,
      -2.7907387630821905e-08,
      -2.3043910172896298e-08,
      -1.9582779896716207e-08,
      -2.7205535576906116e-08,
      -3.379759404766942e-08,
      -4.733113634462731e-08,
      -4.29487073418416e-08,
      -2.9597307538158167e-08,
      -2.3717645609417955e-08,
      -2.6994578037357543e-08,
      -2.2328046211303544e-08,
      -2.9912951454439104e-08,
      -3.239306519885198e-08,
      -3.7189383840998284e-08,
      -2.445724787232525e-08,
      -2.7925865559750495e-08,
      -2.1715373740092704e-08,
      -7.236289597044815e-09,
      4.926626802575037e-10,
      1.2653177729156392e-08,
      -1.8726386856926817e-08,
      -1.4658804980714947e-08,
      4.627479922525078e-09,
      -2.609477874122906e-09,
      -6.768499851530098e-09,
      8.844298593088627e-09,
      1.6885060853644484e-08,
      1.847372539903697e-08,
      1.7350150231692024e-08,
      9.056680314539132e-09,
      6.208739134234216e-09,
      2.6421922440723192e-08,
      3.903514094784393e-08,
      4.501432026973217e-08,
      3.961819139402975e-08,
      2.8421839057233973e-08,
      3.170592622351085e-08,
      3.168216359367441e-08,
      2.590441358693858e-08,
      2.6918338729627668e-08,
      4.355590084261856e-08,
      6.082169046155647e-08,
      5.9120343075902566e-08,
      6.020543487178125e-08,
      6.616150112189863e-08,
      7.173213477733241e-08,
      6.943950050432665e-08,
      5.986817890809378e-08,
      5.873945591930622e-08,
      8.50604970186603e-08,
      9.821481314838553e-08,
      1.0043981384980427e-07,
      9.847019801917627e-08,
      9.792112136231588e-08,
      9.530056517544882e-08,
      8.887821619729903e-08,
      8.243660663107716e-08,
      7.784234795347285e-08,
      7.523843267170267e-08,
      7.263670141047703e-08,
      6.231216824878032e-08,
      4.4228245598280334e-08,
      2.263110686169732e-08,
      1.5460274672667078e-08,
      2.2871844015107188e-08,
      3.27642958298399e-08,
      7.297782107661807e-08,
      1.0159143031317833e-07,
      1.289262554203219e-07,
      1.314685356244047e-07,
      1.3750470813656298e-07,
      1.651380103418248e-07,
      1.7922313663152675e-07,
      1.814631499793823e-07,
      1.780460327667462e-07,
      1.7191539691791666e-07,
      1.6310561317382975e-07,
      1.192928992275906e-07
    ],
    [
      1.1434006217677553e-07,
      1.211635973882127e-07,
      1.1441530001040057e-07,
      1.1372025035568518e-07,
      1.0925869869075472e-07,
      1.0717729305710988e-07,
      1.0599982772562973e-07,
      1.1129726841269869e-07,
      1.143184573190278e-07,
      1.1830977200345722e-07,
      1.1685861145776878e-07,
      1.16845578644526e-07,
      1.1732840169252755e-07,
      1.1891626343217404e-07,
      1.1791312816919637e-07,
      1.1808115304177035e-07,
      1.1306728771622974e-07,
      1.16983272207701e-07,
      1.1815022253491614e-07,
      1.20487315772074e-07,
      1.2476600406070427e-07,
      1.304744811048778e-07,
      1.3506314174659795e-07,
      1.3533617180358733e-07,
      1.343391942568948e-07,
      1.3270111912280387e-07,
      1.3101777291531871e-07,
      1.2347033522543962e-07,
      1.1741810554046235e-07,
      1.130581180706638e-07,
      1.1575685102996244e-07,
      1.288606417511363e-07,
      1.4861972417594983e-07,
      1.600497819596864e-07,
      1.4785269351004056e-07,
      1.264665472041769e-07,
      1.1224129216724854e-07,
      1.0307254545018019e-07,
      9.437103425474572e-08,
      9.104340337347019e-08,
      8.608209543105986e-08,
      8.689573694517775e-08,
      8.796164417477528e-08,
      9.771702908963984e-08,
      1.0359844332134923e-07,
      1.1403807947228373e-07,
      1.25034700025705e-07,
      1.4517590607540973e-07,
      1.444769731200106e-07,
      1.193255761548761e-07,
      9.814273862024006e-08,
      9.891927998011807e-08,
      1.0724510284931446e-07,
      9.736411643359189e-08,
      8.754984740320444e-08,
      8.550176416084376e-08,
      8.527119680221236e-08,
      8.604567331632283e-08,
      8.66654527397785e-08,
      8.763459819117477e-08,
      8.470228748607451e-08,
      8.024142109481007e-08,
      7.527402931071382e-08,
      7.30305129148606e-08,
      7.184520003958323e-08,
      7.120240370743772e-08,
      7.110603988462703e-08,
      7.191325585746108e-08,
      7.384781130720427e-08,
      7.906442479059252e-08,
      8.096743344142124e-08,
      7.987673723988122e-08,
      8.564401405168434e-08,
      8.380250220524079e-08,
      7.822533076724585e-08,
      7.711619546359928e-08,
      7.811063818138468e-08,
      7.677222415294149e-08,
      7.701879968553084e-08,
      7.837411966817326e-08,
      8.105907029618795e-08,
      9.321899186493322e-08,
      9.980751753549997e-08,
      9.196840170746356e-08,
      8.715229078990873e-08,
      8.658208385422457e-08,
      8.090708989701272e-08,
      7.801374673066984e-08,
      8.054788032584042e-08,
      8.708759596696504e-08,
      9.329275201140173e-08,
      9.48571931381445e-08,
      9.571304543557987e-08,
      9.751214580397891e-08,
      1.0195110695939797e-07,
      1.0389555072590071e-07,
      1.0578358612365037e-07,
      1.0817042353819079e-07,
      1.0828011296964836e-07,
      1.0414761029032323e-07,
      1.1020663907833297e-07,
      1.1264633739968735e-07,
      1.2060490320582515e-07,
      1.1930759472170014e-07,
      1.273185464236608e-07,
      1.2919814167029595e-07,
      1.3015192791802822e-07,
      1.3375127814906673e-07,
      1.3724015966647382e-07,
      1.402832749242003e-07,
      1.3488776346747057e-07,
      1.333625478153822e-07,
      1.3287158047826287e-07,
      1.2889929251152248e-07,
      1.2252935546262898e-07,
      1.1529581928420984e-07,
      1.231656197398843e-07,
      1.2844738470692065e-07,
      1.2397386035171888e-07,
      1.267301850692332e-07,
      1.318215714441959e-07,
      1.4155089092715995e-07,
      1.5659428916990636e-07,
      1.6084587163522957e-07,
      1.5883287164673346e-07,
      1.5358192959134902e-07,
      1.5067647828369543e-07,
      1.5879606520016539e-07,
      1.692128074094489e-07,
      1.8049348913415896e-07,
      1.78080005201512e-07,
      1.6284359972268263e-07,
      1.6001377991748164e-07,
      1.5898185335543298e-07,
      1.5665578442973672e-07,
      1.5145171449537588e-07,
      1.5276149173836043e-07,
      1.592764444805172e-07,
      1.6364816490116865e-07,
      1.5778201793662985e-07,
      1.5751605830773153e-07,
      1.710041611825404e-07,
      1.813892218810884e-07,
      1.8625701925534268e-07,
      1.9023727248725292e-07,
      1.8696098631407876e-07,
      1.7797846488756895e-07,
      1.8435175554646023e-07,
      1.886363518993523e-07,
      1.9417814091816713e-07,
      1.99786558703721e-07,
      2.0148825067391184e-07,
      1.9938552562289327e-07,
      2.016092141875858e-07,
      2.0297018644775314e-07,
      2.0493902554011351e-07,
      2.0836925939776203e-07,
      2.1263911528907185e-07,
      2.1939075264553414e-07,
      2.256520683968862e-07,
      2.3084689411624091e-07,
      2.3519109135008697e-07,
      2.3510877254688495e-07,
      2.3630413612248347e-07,
      2.3368353663856244e-07,
      2.326104139373007e-07,
      2.2842098059640824e-07,
      2.313876040575866e-07,
      2.3275969971665588e-07,
      2.3218856941329298e-07,
      2.274674574723768e-07,
      2.282533956574888e-07,
      2.3845367677851086e-07,
      2.402212642527023e-07,
      2.4765082358937097e-07,
      2.610178458247624e-07,
      2.774024898588931e-07,
      2.969950480520954e-07,
      3.189817039644014e-07,
      3.469611753411143e-07,
      3.5364301489979877e-07,
      3.590517881318013e-07,
      3.532458015778821e-07,
      3.2748698546954975e-07,
      2.9685035549471195e-07,
      2.6902780550490067e-07,
      2.493442326012999e-07,
      2.7024050091660096e-07,
      3.061952573613319e-07,
      3.207064001045138e-07,
      3.40867230822427e-07,
      3.601349872999835e-07,
      3.651771393625514e-07,
      3.6323742307202785e-07,
      3.8803104987903534e-07,
      4.1764258236004694e-07,
      4.236951467088554e-07,
      4.08936929398946e-07,
      3.935522083317597e-07,
      3.922290402622183e-07,
      3.386378921873011e-07,
      3.025373130561678e-07,
      2.9789568067249126e-07,
      2.7355340851967715e-07,
      2.500974900498644e-07,
      2.715796611496297e-07,
      2.684578161820261e-07,
      2.6813408925573223e-07,
      2.651413077809376e-07,
      2.1447174651593525e-07,
      1.765187275838571e-07,
      1.8297777113148212e-07,
      1.9178327207358866e-07,
      1.8852661301150573e-07,
      1.625938660687488e-07,
      1.5597038711433842e-07,
      1.5806719380494157e-07,
      1.5814169134473296e-07,
      1.7506575502524762e-07,
      1.6227673843663402e-07,
      1.68701901518765e-07,
      1.5149477294926653e-07,
      1.7552904345144363e-07,
      1.8954992713487973e-07,
      1.7879372649089645e-07,
      1.5701212284414035e-07,
      1.5912585412187943e-07,
      1.626607336030759e-07,
      1.531045253727475e-07,
      1.646033554637293e-07,
      1.6817482848516858e-07,
      1.679413586082547e-07,
      1.630691717249591e-07,
      1.6112515364557133e-07,
      1.5077397976554025e-07,
      1.3042385714650376e-07,
      1.4565247457422175e-07,
      1.5371985819098702e-07,
      1.7811074648326203e-07,
      2.0216662748466615e-07,
      2.108311838851951e-07,
      2.102355770375e-07,
      1.942577545363908e-07,
      1.54870333798396e-07,
      1.50683406740072e-07,
      1.5620866423109975e-07,
      1.7057893576445452e-07,
      1.7083190391858346e-07,
      1.6571957161615623e-07,
      1.6455831615438056e-07,
      1.6730896705178224e-07,
      1.656988512191647e-07,
      1.6316154830607294e-07,
      1.587308407069586e-07,
      1.5458320388679542e-07,
      1.5184502303521764e-07,
      1.4743748634542037e-07,
      1.503700721846671e-07,
      1.5817205141745386e-07,
      1.5820135748360184e-07,
      1.635394560396471e-07,
      1.668590412604546e-07,
      1.732756951471557e-07,
      1.7149896650593032e-07,
      1.5159653462825364e-07,
      1.3436148649039667e-07,
      1.237385864036207e-07,
      1.414160591209324e-07,
      1.5008480895539438e-07,
      1.5304783991218781e-07,
      1.527808388691018e-07,
      1.622904473292562e-07,
      1.67476667681788e-07,
      1.7635205100746981e-07,
      1.8775736430790503e-07,
      1.9471654148447782e-07,
      1.74077030269138e-07,
      1.4937484443392377e-07,
      1.3311014990972568e-07,
      1.5457883072653464e-07,
      1.7006555020323144e-07,
      1.469762325977604e-07,
      1.2570266094646443e-07,
      1.282070821542611e-07,
      1.3241930594330302e-07,
      1.199576754438808e-07,
      1.09248295197985e-07,
      1.0916548778074515e-07,
      1.1094848465317481e-07,
      1.234812612171869e-07,
      1.1305991723367092e-07,
      1.1464019054454479e-07,
      1.1752689084295766e-07,
      1.1347799046010235e-07,
      1.122316657703294e-07,
      1.0549273112030478e-07
    ],
    [
      -9.105872006517957e-08,
      -9.941430895151847e-08,
      -7.774994431200482e-08,
      -6.804982829717422e-08,
      -5.131853689473618e-08,
      -3.1973118042111066e-08,
      -1.134815754575754e-09,
      7.43768829079535e-09,
      1.3920327538451013e-08,
      1.586992942716578e-08,
      1.9485809819541916e-08,
      1.625644704853611e-08,
      1.027489796528505e-08,
      1.1128111543866916e-08,
      6.7916311434334544e-09,
      1.0173460372477182e-08,
      9.61938987792811e-09,
      1.4540565545607946e-08,
      1.8750660945027064e-08,
      2.0971489421824565e-08,
      1.2536004460748646e-08,
      3.465479545547018e-09,
      2.1654251993425057e-09,
      -2.440227101285952e-10,
      -6.684391380790178e-09,
      7.841613148672493e-10,
      -2.439538367576757e-09,
      -2.2786924422916917e-09,
      4.3573676550985076e-10,
      5.441468410248154e-09,
      3.729200191117283e-09,
      -1.3818512905110935e-08,
      -4.7079487969305436e-08,
      -7.252452448760246e-08,
      -5.7666773625388076e-08,
      -2.202781690218032e-08,
      8.950220900828865e-09,
      2.856875150922493e-08,
      4.508709267740924e-08,
      5.1665754174406885e-08,
      5.000631886588544e-08,
      4.816110873561054e-08,
      3.071830956130851e-08,
      9.931889209815226e-09,
      -1.200798785007073e-08,
      -4.8413093490867535e-08,
      -7.842538945114839e-08,
      -1.0448441445343483e-07,
      -9.578276578200318e-08,
      -6.223834230713302e-08,
      -4.27518713798711e-08,
      -4.5968843003789314e-08,
      -5.273096813649549e-08,
      -3.776798880209222e-08,
      -1.7460483873796585e-08,
      -1.1014504537825074e-08,
      -9.447532167467605e-09,
      -7.612937151261536e-09,
      -6.292614732047729e-09,
      -4.171798273810969e-09,
      -3.8002749979207575e-09,
      3.329758078019616e-09,
      1.9430451592668183e-08,
      2.847285014503662e-08,
      3.53276547477834e-08,
      4.291860216930236e-08,
      5.432388438008585e-08,
      5.9062632771328537e-08,
      6.926108579791714e-08,
      7.301439127494444e-08,
      7.460863387535244e-08,
      7.321385109956693e-08,
      7.398747909393457e-08,
      7.896597606830769e-08,
      7.777972796748878e-08,
      7.3142960377149e-08,
      7.349509784217544e-08,
      7.353745212622763e-08,
      7.231660167834007e-08,
      5.974505780781443e-08,
      4.4403381812957576e-08,
      1.6488502993018073e-08,
      -5.576772947245138e-09,
      4.897095596469615e-09,
      1.023729006698729e-08,
      1.0590157457296867e-08,
      1.5189030931209243e-08,
      1.4184010725330978e-08,
      7.0701125082088354e-09,
      -6.370879460234845e-09,
      -1.9161770930963218e-08,
      -2.4065022985500667e-08,
      -2.5840913658607588e-08,
      -2.8964585903612818e-08,
      -3.3461860001597935e-08,
      -3.7617181242422186e-08,
      -3.9015699375450825e-08,
      -3.64289858847624e-08,
      -2.8338588059733194e-08,
      -2.2697177379570996e-08,
      -1.7887109110814645e-08,
      -1.8637002913706677e-08,
      -1.1202808034296258e-08,
      -1.072865716008043e-08,
      -1.2581393513832399e-08,
      -8.340229476903312e-09,
      -1.0269307890971204e-08,
      -2.3065129527635815e-08,
      -3.410397253140675e-08,
      -4.758254754590522e-08,
      -4.599673538596168e-08,
      -5.4535475236160774e-08,
      -5.6385528841493075e-08,
      -4.890224947930812e-08,
      -4.4202420786525614e-08,
      -5.6882271357142565e-08,
      -8.496130999944243e-08,
      -9.780979100210865e-08,
      -9.390374745817688e-08,
      -1.0054650688867236e-07,
      -1.1155812014901007e-07,
      -1.2263002817574494e-07,
      -1.389419138507927e-07,
      -1.4239168150973173e-07,
      -1.4973424691185503e-07,
      -1.5779453869933696e-07,
      -1.619789725430353e-07,
      -1.789424107003221e-07,
      -1.8667374610102618e-07,
      -1.9297834964267001e-07,
      -1.9823542738624384e-07,
      -1.99978868362941e-07,
      -2.083517443818913e-07,
      -2.2147973568211911e-07,
      -2.274432731053362e-07,
      -2.1462512912892355e-07,
      -2.1415987741375697e-07,
      -2.2159343177948553e-07,
      -2.2763628767304653e-07,
      -2.2141165285897498e-07,
      -2.237122168123302e-07,
      -2.393209446337727e-07,
      -2.5049424442192543e-07,
      -2.534118688838967e-07,
      -2.5892778647734e-07,
      -2.5539513008200114e-07,
      -2.436200277982209e-07,
      -2.588588432049624e-07,
      -2.7368215359883464e-07,
      -2.895371449487603e-07,
      -3.0651605737091045e-07,
      -3.135566475822622e-07,
      -3.11430836158281e-07,
      -3.1612371817900235e-07,
      -3.184104322204782e-07,
      -3.220725998299709e-07,
      -3.247497845888456e-07,
      -3.2938959470418277e-07,
      -3.3406647638218317e-07,
      -3.3439244524452374e-07,
      -3.331960816177254e-07,
      -3.3323651105403804e-07,
      -3.2373415414770056e-07,
      -3.176228999110319e-07,
      -3.092213415099954e-07,
      -3.085846316191013e-07,
      -3.0940767680135696e-07,
      -3.253792894568464e-07,
      -3.321580577712796e-07,
      -3.3331061101665145e-07,
      -3.124532390157547e-07,
      -3.011671200844367e-07,
      -3.132975400293802e-07,
      -3.435639940731214e-07,
      -3.6950641459473724e-07,
      -3.81039695972454e-07,
      -3.8118024529161594e-07,
      -3.9294415094865995e-07,
      -4.194209434781637e-07,
      -4.472772174758026e-07,
      -4.5122472319867933e-07,
      -4.5252128225353827e-07,
      -4.377280002411214e-07,
      -3.9411471068889736e-07,
      -3.5024131854089984e-07,
      -3.197768753671292e-07,
      -2.954805662182856e-07,
      -3.143519959116064e-07,
      -3.6296561446374567e-07,
      -3.894010413401436e-07,
      -4.1223547530650495e-07,
      -4.3306649766873616e-07,
      -4.3859293697316777e-07,
      -4.359596169070285e-07,
      -4.5634652220775555e-07,
      -4.869395828352003e-07,
      -4.928491591332407e-07,
      -4.802589184672937e-07,
      -4.555337602366638e-07,
      -4.571293541328612e-07,
      -3.98412188323319e-07,
      -3.6130957274000036e-07,
      -3.5729533825883795e-07,
      -3.242148330584399e-07,
      -2.9926079397069797e-07,
      -3.175439275292538e-07,
      -3.0738039917556246e-07,
      -3.0362640408482686e-07,
      -3.140112769940762e-07,
      -2.3933955627343997e-07,
      -1.9383596716821495e-07,
      -2.1099301930799257e-07,
      -2.397233244009648e-07,
      -2.3687181094929016e-07,
      -2.0755426772189333e-07,
      -2.1164137190155837e-07,
      -2.1448133882033757e-07,
      -2.211798811857854e-07,
      -2.373873991102223e-07,
      -2.1938820198791567e-07,
      -2.3077260962642233e-07,
      -1.9744331221310292e-07,
      -2.2864871667111768e-07,
      -2.3543675417718e-07,
      -2.1935959360308982e-07,
      -1.994246891405164e-07,
      -1.990765235002161e-07,
      -1.9688511573622915e-07,
      -1.8709923517168776e-07,
      -2.0257939909523172e-07,
      -2.079494047972061e-07,
      -2.088193905520757e-07,
      -2.1083356958926967e-07,
      -2.042016125569827e-07,
      -1.8934842416714934e-07,
      -1.7747437514938824e-07,
      -2.0363862208113206e-07,
      -2.1861630844163084e-07,
      -2.274982911783767e-07,
      -2.642817291856822e-07,
      -2.9297620743727443e-07,
      -2.8485449333498036e-07,
      -2.57313626218041e-07,
      -2.1724848914981293e-07,
      -2.2274601230324144e-07,
      -2.3266751221956352e-07,
      -2.4027007233928213e-07,
      -2.230244436781862e-07,
      -2.1046927020978185e-07,
      -2.2663232765373297e-07,
      -2.3931966097072754e-07,
      -2.3622408450868045e-07,
      -2.2823404380564935e-07,
      -2.1650604103208506e-07,
      -2.1848579611181848e-07,
      -2.2214090237059583e-07,
      -2.174916625899096e-07,
      -2.2653174625268918e-07,
      -2.5685668892574215e-07,
      -2.755661716126331e-07,
      -2.8266522765224155e-07,
      -2.8857987347739504e-07,
      -2.9894682448029e-07,
      -3.013523120692297e-07,
      -2.786538085141873e-07,
      -2.536818900646129e-07,
      -2.4229486983694903e-07,
      -2.90091340229088e-07,
      -3.1254015289834974e-07,
      -3.1947122706029804e-07,
      -3.179182906834088e-07,
      -3.28537082818888e-07,
      -3.3009445792016776e-07,
      -3.327891634790972e-07,
      -3.3896357570615386e-07,
      -3.4232696562241376e-07,
      -3.143322176053064e-07,
      -2.827598834354303e-07,
      -2.5458544568144145e-07,
      -2.6050951329260174e-07,
      -2.514345101729914e-07,
      -2.1352151562389671e-07,
      -1.9345973992955867e-07,
      -2.1163635984283215e-07,
      -2.472927031064262e-07,
      -2.4688439803565375e-07,
      -2.5698094884026766e-07,
      -2.6009680224639024e-07,
      -2.677520717951988e-07,
      -3.121640765911401e-07,
      -3.1294630069444036e-07,
      -3.187365859398149e-07,
      -3.2127817747589607e-07,
      -3.069303694177033e-07,
      -2.9779754635133854e-07,
      -2.524156887737212e-07
    ],
    [
      -2.691544484295599e-07,
      -2.966230071098378e-07,
      -3.2277542798064955e-07,
      -3.38116788661375e-07,
      -3.36646630865856e-07,
      -3.3404810285027407e-07,
      -3.3193654115885255e-07,
      -3.3841120873050367e-07,
      -3.424777580395753e-07,
      -3.448682361214425e-07,
      -3.4212782387632536e-07,
      -3.38080227140023e-07,
      -3.3203359673368036e-07,
      -3.38939937822638e-07,
      -3.2971841428860793e-07,
      -3.322285817486165e-07,
      -3.12915481491414e-07,
      -3.2358112045535335e-07,
      -3.1751564151920935e-07,
      -3.1745881091707035e-07,
      -3.0763788294240585e-07,
      -2.9667155902207327e-07,
      -2.9482882892925e-07,
      -2.9049867244427414e-07,
      -2.778428699054343e-07,
      -2.808083588837341e-07,
      -2.749548735043527e-07,
      -2.602034213534713e-07,
      -2.5705833433368264e-07,
      -2.4760019401791245e-07,
      -2.3424224050552693e-07,
      -2.279789905048941e-07,
      -2.2966699444822235e-07,
      -2.310443038106302e-07,
      -2.2044303459763895e-07,
      -2.1122355313277658e-07,
      -2.1375843857181934e-07,
      -2.2061584876222938e-07,
      -2.2341252630867275e-07,
      -2.2685423384508424e-07,
      -2.171104156272605e-07,
      -2.224160604359043e-07,
      -2.2388593764258956e-07,
      -2.3524131343040672e-07,
      -2.3303515678092979e-07,
      -2.3225249883006176e-07,
      -2.2993628178558737e-07,
      -2.2075160642312056e-07,
      -2.126177029513078e-07,
      -2.18324562475167e-07,
      -2.1586478460087031e-07,
      -2.1347806697838717e-07,
      -2.1474215290282428e-07,
      -2.2262468515308187e-07,
      -2.3480332378944548e-07,
      -2.3935161547677125e-07,
      -2.4214113069073794e-07,
      -2.5173741244617115e-07,
      -2.608180555873447e-07,
      -2.718646932293556e-07,
      -2.668908079602762e-07,
      -2.6216444768480904e-07,
      -2.6579231999114125e-07,
      -2.65031609063107e-07,
      -2.5934626361416945e-07,
      -2.5817980942594597e-07,
      -2.626886498785706e-07,
      -2.608175499640361e-07,
      -2.68691068772309e-07,
      -2.73809280060413e-07,
      -2.748003082555389e-07,
      -2.6729529269886236e-07,
      -2.6505027674040775e-07,
      -2.6332349087242134e-07,
      -2.480419778625041e-07,
      -2.340832042397677e-07,
      -2.32230974544262e-07,
      -2.313761946152482e-07,
      -2.3244889357285418e-07,
      -2.2489866432092073e-07,
      -2.1568340958115925e-07,
      -2.0907385845755052e-07,
      -1.9928310431566523e-07,
      -1.958580616907866e-07,
      -2.0212937282554713e-07,
      -2.1803521041870006e-07,
      -2.3294837402918916e-07,
      -2.4704900777653416e-07,
      -2.6871197837002206e-07,
      -2.8023204691276225e-07,
      -2.9182507634722175e-07,
      -2.9495201874364304e-07,
      -2.9752264201529576e-07,
      -2.9769092984432143e-07,
      -2.962428222745275e-07,
      -2.963487284385617e-07,
      -3.0010078269851316e-07,
      -3.0976447255760503e-07,
      -3.1918650546830267e-07,
      -3.100491297250687e-07,
      -3.2578549520551e-07,
      -3.2675231977749136e-07,
      -3.4219825180403537e-07,
      -3.3574472969628196e-07,
      -3.437095937079255e-07,
      -3.289269680791219e-07,
      -3.138195854912741e-07,
      -2.8491217074877825e-07,
      -2.7184356764251975e-07,
      -2.623675205050286e-07,
      -2.6385602588881164e-07,
      -2.6207475257574925e-07,
      -2.64109764909981e-07,
      -2.662681282945542e-07,
      -2.563885221402725e-07,
      -2.2671893480758967e-07,
      -2.1001113380510568e-07,
      -2.1708705652477432e-07,
      -2.4076773016813e-07,
      -2.5202765437852857e-07,
      -2.4454395566340784e-07,
      -2.450637254197806e-07,
      -2.605179163555812e-07,
      -2.7697890134905494e-07,
      -2.972527954506984e-07,
      -2.998151320071047e-07,
      -2.99758776691692e-07,
      -3.073311034984234e-07,
      -2.9433515791237845e-07,
      -2.998730676644877e-07,
      -3.094220095983605e-07,
      -3.135403388930591e-07,
      -3.148287151104168e-07,
      -3.222959828832267e-07,
      -3.235977579118046e-07,
      -3.177382244723778e-07,
      -3.2626178962809287e-07,
      -3.2168993934159627e-07,
      -3.0271638922138834e-07,
      -3.073030558002922e-07,
      -3.0886870356011233e-07,
      -3.2324499676696445e-07,
      -3.33572691112181e-07,
      -3.355959053077434e-07,
      -3.344398698639688e-07,
      -3.2833580153589805e-07,
      -3.16338241618628e-07,
      -3.188860281667897e-07,
      -3.123768804500076e-07,
      -3.077905364724267e-07,
      -3.0228180370636085e-07,
      -2.971407279319815e-07,
      -2.9136581724363967e-07,
      -2.9006863482927037e-07,
      -2.85067481864514e-07,
      -2.7649290709370336e-07,
      -2.6216914958450653e-07,
      -2.5682428310754726e-07,
      -2.4768529206385653e-07,
      -2.3693836503026282e-07,
      -2.2657308619594902e-07,
      -2.1907436527682796e-07,
      -2.049557565925234e-07,
      -1.9648402089716175e-07,
      -1.916748731308815e-07,
      -1.9261212199009527e-07,
      -1.9099901367014366e-07,
      -1.9128363757634712e-07,
      -1.8254405557170998e-07,
      -1.689061972281858e-07,
      -1.6331707301292123e-07,
      -1.594238844768732e-07,
      -1.4893092709626942e-07,
      -1.141605063203416e-07,
      -9.261021662210946e-08,
      -9.372035524290717e-08,
      -1.0884002889850098e-07,
      -1.1381518656386528e-07,
      -1.0017613839809214e-07,
      -8.007720618347136e-08,
      -6.61476698815473e-08,
      -6.544390695991297e-08,
      -6.005677677193024e-08,
      -6.167721731757753e-08,
      -7.062632885628783e-08,
      -9.48091364723808e-08,
      -1.270228099036499e-07,
      -1.0249788459256587e-07,
      -1.0419986931324211e-07,
      -1.0837729147235493e-07,
      -1.0654234022193222e-07,
      -1.076940323363206e-07,
      -1.0784634001758431e-07,
      -1.0625313743797953e-07,
      -1.0115624109205891e-07,
      -9.394602304654513e-08,
      -8.570693890773955e-08,
      -8.264943653521686e-08,
      -7.380534064705831e-08,
      -8.092262047599264e-08,
      -8.967669914902427e-08,
      -1.1084427839293309e-07,
      -1.3013830261067347e-07,
      -1.5742795305131316e-07,
      -1.7260502656528283e-07,
      -1.6335610437095295e-07,
      -1.6744061362968424e-07,
      -1.5838384489477865e-07,
      -1.8340400995622174e-07,
      -1.65309115048488e-07,
      -1.4623104476709075e-07,
      -1.7117746585074183e-07,
      -1.966361755757229e-07,
      -2.0541246799409805e-07,
      -1.6747688273073202e-07,
      -1.5050237871380573e-07,
      -1.4854520120644003e-07,
      -1.4277206403247243e-07,
      -1.2889606201047343e-07,
      -1.3473073957509611e-07,
      -1.297832216794614e-07,
      -1.2513506610601522e-07,
      -1.4195956957243898e-07,
      -1.4223006590301332e-07,
      -1.3611857083411763e-07,
      -1.24224603614905e-07,
      -1.3839431188298855e-07,
      -1.4837652506814997e-07,
      -1.4627817385621386e-07,
      -1.320377104923195e-07,
      -1.2938323575598873e-07,
      -1.296656001151308e-07,
      -1.46659648969123e-07,
      -1.6275109649895344e-07,
      -1.57520563055308e-07,
      -1.5918799737684797e-07,
      -2.007830453258147e-07,
      -2.2532039416655331e-07,
      -2.0069253463098845e-07,
      -2.1310344403316374e-07,
      -2.3854336363590547e-07,
      -2.404543531216761e-07,
      -2.487994362160312e-07,
      -2.63033480660401e-07,
      -2.574602897843067e-07,
      -2.4775260277784226e-07,
      -2.485184146309152e-07,
      -2.4788725496171006e-07,
      -2.39909224108668e-07,
      -2.2028081152791007e-07,
      -2.1490665387103285e-07,
      -2.091691567150489e-07,
      -2.051916111275782e-07,
      -2.011485290412373e-07,
      -2.0768211973691938e-07,
      -2.0310948899649722e-07,
      -1.8580233061891482e-07,
      -1.8179641590134602e-07,
      -2.1889761223892076e-07,
      -2.582289033125714e-07,
      -2.809087675628537e-07,
      -2.950528880937053e-07,
      -3.066870006903108e-07,
      -3.022542871948947e-07,
      -2.757484801713899e-07,
      -2.523462176649898e-07,
      -2.5223057886085664e-07,
      -2.8786435781244e-07,
      -3.02679219209368e-07,
      -2.9589271770696784e-07,
      -2.885106674622323e-07,
      -2.979343773980419e-07,
      -3.0678714980676277e-07,
      -3.0703163533240084e-07,
      -3.0036945609000945e-07,
      -2.9466572608910235e-07,
      -2.839182337678553e-07,
      -2.6807841768990053e-07,
      -2.469918436513653e-07,
      -2.4236742358870546e-07,
      -2.3637645029317297e-07,
      -2.203729705931094e-07,
      -2.146834118825284e-07,
      -2.2078876417969208e-07,
      -2.239947549931051e-07,
      -2.4463253312962946e-07,
      -2.36977153989371e-07,
      -2.332598988792519e-07,
      -2.4005180107193073e-07,
      -2.7688476273097524e-07,
      -2.711581657508055e-07,
      -2.509718890091105e-07,
      -2.316886068124307e-07,
      -2.2140400666697035e-07,
      -2.1434382984641286e-07,
      -1.842457862599045e-07
    ],
    [
      4.426131215826072e-08,
      4.802983933816544e-08,
      3.5950063931500335e-08,
      3.0665386582097473e-08,
      2.4889429845369712e-08,
      1.9825240304426044e-08,
      1.2321777763858078e-08,
      1.177066778554e-08,
      1.0265689314053386e-08,
      9.130970556002253e-09,
      7.275059549073074e-09,
      6.506209357783101e-09,
      7.358326939142571e-09,
      5.520850638364864e-09,
      5.277442538325517e-09,
      3.812865122801218e-09,
      3.0149475303541344e-09,
      3.0477790197108662e-09,
      4.124510315790354e-09,
      4.905376127296232e-09,
      1.0111996708200234e-08,
      1.5723262720769593e-08,
      1.8128429618883567e-08,
      2.010468344976337e-08,
      2.319749062919543e-08,
      2.470869096056145e-08,
      2.7429790501483137e-08,
      2.4546488188582294e-08,
      2.0246670894467133e-08,
      1.835863549293269e-08,
      2.240668286039865e-08,
      3.561833836702039e-08,
      5.4609818251311266e-08,
      6.857517161397542e-08,
      6.419640102560025e-08,
      4.4825353850637505e-08,
      2.526189193016978e-08,
      1.062001865190275e-08,
      -7.044966250171951e-10,
      -5.4140447851639656e-09,
      -6.343314736569808e-09,
      -7.194547973570616e-09,
      -5.3195692487783666e-09,
      9.752503186904444e-10,
      8.414796845123903e-09,
      2.0197871682569743e-08,
      3.083154351758123e-08,
      4.7179497657035925e-08,
      5.200611586635457e-08,
      3.5964421289616654e-08,
      2.1489830431657673e-08,
      2.3717923236441862e-08,
      3.534904058266535e-08,
      3.230780395295418e-08,
      2.3558411522518906e-08,
      2.00791242407232e-08,
      1.937057059122286e-08,
      1.9270485765244414e-08,
      1.9396130946981653e-08,
      1.865381864338136e-08,
      1.798013158475539e-08,
      1.5833988506055746e-08,
      1.1932596024176203e-08,
      1.0457080194099591e-08,
      1.0027748168940231e-08,
      8.46250385352247e-09,
      5.5658940847968e-09,
      4.5798714827666795e-09,
      2.383362405747068e-09,
      3.8507528683773995e-09,
      4.48788543438907e-09,
      4.794519747947428e-09,
      7.208273491419451e-09,
      5.048773096382423e-09,
      3.4510585870131517e-09,
      4.409711216620819e-09,
      4.4773624742521025e-09,
      3.268142301243967e-09,
      3.010042730662578e-09,
      7.357139455665445e-09,
      1.2483432430300874e-08,
      2.64972098842109e-08,
      3.641173824041504e-08,
      2.906641224608339e-08,
      2.284461014464998e-08,
      2.0400657117496928e-08,
      1.3828033584038085e-08,
      8.198469714735891e-09,
      5.189861413267947e-09,
      8.376222362132083e-09,
      1.3512775437776119e-08,
      1.5625538472004586e-08,
      1.7066884454453243e-08,
      2.1647295667215552e-08,
      2.8702775043810503e-08,
      3.5456222898013036e-08,
      3.9369050490322785e-08,
      4.032833953123651e-08,
      4.0256265704488573e-08,
      3.728774918917119e-08,
      3.709150751703516e-08,
      3.74446366862149e-08,
      3.756493667756885e-08,
      3.6142746093504516e-08,
      3.9135674276823035e-08,
      3.682460174121226e-08,
      3.559900131679925e-08,
      3.4957487356397245e-08,
      3.7258487220586406e-08,
      3.747652708737073e-08,
      3.3036621068282577e-08,
      3.470777239374112e-08,
      3.624273252509991e-08,
      3.4403408178222096e-08,
      3.0980311264509384e-08,
      3.138617284510665e-08,
      4.1974067925217424e-08,
      4.457914975281615e-08,
      3.852020652545261e-08,
      4.045369854758975e-08,
      4.325020595383012e-08,
      4.837925131246732e-08,
      5.523896403441032e-08,
      5.311023636527626e-08,
      4.4769157675711503e-08,
      4.0973992138034604e-08,
      3.894062014608141e-08,
      4.2128931068947695e-08,
      5.0500346317161865e-08,
      5.970471888706114e-08,
      6.029640603957962e-08,
      5.0488877994646345e-08,
      4.4718598970369106e-08,
      3.9998405872272145e-08,
      3.9171532891424585e-08,
      3.8886173442744294e-08,
      3.9417808341115005e-08,
      4.701809812352275e-08,
      5.447147893984739e-08,
      4.9982934224352416e-08,
      4.8883226339693525e-08,
      5.5476773737453206e-08,
      6.283155992102178e-08,
      6.815619085421701e-08,
      7.521895916975014e-08,
      7.666582012758266e-08,
      7.444798551975247e-08,
      8.517380704838364e-08,
      9.779114899156931e-08,
      1.1199550157115583e-07,
      1.2953504161875118e-07,
      1.41714357412243e-07,
      1.438898218582653e-07,
      1.5287444010990184e-07,
      1.6075086014070838e-07,
      1.689000762297992e-07,
      1.7725675688935127e-07,
      1.822581376034946e-07,
      1.887492505374119e-07,
      1.9458912868835476e-07,
      1.991310281829418e-07,
      2.029937044478712e-07,
      2.0387993005576408e-07,
      2.0693325064885405e-07,
      2.079330909977054e-07,
      2.1148878870859118e-07,
      2.134802020240082e-07,
      2.2107643928923845e-07,
      2.2401917708269492e-07,
      2.2579756183132924e-07,
      2.1539868282751937e-07,
      2.1211032211538822e-07,
      2.2241973695135302e-07,
      2.38837186824376e-07,
      2.522227095273709e-07,
      2.579220263877875e-07,
      2.56190912750538e-07,
      2.555069084187364e-07,
      2.535189739971456e-07,
      2.4555471845935686e-07,
      2.2768241978055272e-07,
      2.2063375899158432e-07,
      2.0955079836540848e-07,
      1.8535639400688292e-07,
      1.6379507717005121e-07,
      1.427883633371589e-07,
      1.3102335864939885e-07,
      1.4930416529200573e-07,
      1.704829824291474e-07,
      1.80961443750847e-07,
      1.9762954469177918e-07,
      2.124611210236396e-07,
      2.2096560849637523e-07,
      2.2167233494462043e-07,
      2.3582307916342434e-07,
      2.518375100991597e-07,
      2.5464375338082926e-07,
      2.433526923733714e-07,
      2.3612443540787754e-07,
      2.3094961572041515e-07,
      1.9519685198941825e-07,
      1.6602468778478628e-07,
      1.5220805843735763e-07,
      1.219308806615053e-07,
      1.0150301113127444e-07,
      1.1739727875146166e-07,
      1.1558317570051338e-07,
      1.2018486743481267e-07,
      1.1721930401841683e-07,
      8.84568683854937e-08,
      7.57363552813581e-08,
      8.093273571313631e-08,
      8.853252667268185e-08,
      8.438064130751539e-08,
      7.80015810852465e-08,
      8.004426436402181e-08,
      8.913289053948943e-08,
      9.606822954374812e-08,
      1.1117676053079545e-07,
      1.0097771087156601e-07,
      1.0960107847625548e-07,
      9.507851530520226e-08,
      1.1126726239482075e-07,
      1.2558511044775848e-07,
      1.1958234734519494e-07,
      1.0712905573816748e-07,
      1.0457183953893889e-07,
      1.0473813241495543e-07,
      9.735871133518773e-08,
      1.0642915225204818e-07,
      1.0420453328535793e-07,
      1.0685927044930794e-07,
      9.711828386181635e-08,
      8.918011778434726e-08,
      8.190731998221439e-08,
      7.186105588370287e-08,
      7.564499515998808e-08,
      7.121637826320327e-08,
      8.07060477384152e-08,
      9.005223151242323e-08,
      9.442818137722485e-08,
      9.325598898199363e-08,
      8.192815566714607e-08,
      5.950529410804869e-08,
      6.095840620393106e-08,
      6.788224412841968e-08,
      7.575945615081186e-08,
      7.668993436752132e-08,
      7.630652351920835e-08,
      8.16643993723744e-08,
      8.516211510089249e-08,
      8.1177043791723e-08,
      7.947630935711944e-08,
      7.92943300140205e-08,
      8.060145380106684e-08,
      8.28402529920219e-08,
      8.150818053800741e-08,
      7.871146390135233e-08,
      7.777362420111983e-08,
      7.314630603536675e-08,
      7.20129930919541e-08,
      6.836911927122414e-08,
      6.483743433347569e-08,
      6.128727220143775e-08,
      5.2956712788928065e-08,
      4.771451310235267e-08,
      4.186714723009565e-08,
      4.658210699472915e-08,
      4.8605365987448555e-08,
      5.191042145734959e-08,
      5.330263035104936e-08,
      5.6622219712165935e-08,
      5.591887584719283e-08,
      5.766182912732679e-08,
      6.175283711948501e-08,
      6.522076485227182e-08,
      5.7486132442698565e-08,
      4.8095969894927965e-08,
      4.335719169988449e-08,
      5.283129472029495e-08,
      5.648419740954939e-08,
      4.5467350345291365e-08,
      3.404570838485049e-08,
      3.762907291073277e-08,
      4.161685050117492e-08,
      3.525699776848821e-08,
      3.9463824632415616e-08,
      4.2998522442349596e-08,
      4.8129713634162185e-08,
      5.744223664752683e-08,
      5.855213834510531e-08,
      6.931955719027177e-08,
      7.813383862197867e-08,
      8.041855559128063e-08,
      8.036327836115029e-08,
      7.635861974069803e-08
    ],
    [
      -1.0687160090662349e-07,
      -1.1708702695970916e-07,
      -1.4019928375672244e-07,
      -1.519161427198809e-07,
      -1.6171030507338257e-07,
      -1.7571770204068507e-07,
      -2.0407217782029874e-07,
      -2.1564824432054666e-07,
      -2.2440273323171117e-07,
      -2.2708844618645475e-07,
      -2.2737639905165946e-07,
      -2.2224704114200736e-07,
      -2.1380917008744814e-07,
      -2.2105605034999114e-07,
      -2.1198964675727058e-07,
      -2.1832025352601345e-07,
      -2.0733025987160456e-07,
      -2.1844021835519806e-07,
      -2.2288312426784172e-07,
      -2.2834526238420408e-07,
      -2.1752442028290032e-07,
      -2.051406791264737e-07,
      -2.0171959848044427e-07,
      -1.93504169447654e-07,
      -1.7903291897062202e-07,
      -1.8451186918513144e-07,
      -1.7341645700773684e-07,
      -1.5309684123798448e-07,
      -1.4167188290084304e-07,
      -1.3035521479897832e-07,
      -1.254645120230876e-07,
      -1.2423909749156084e-07,
      -1.1704392353033188e-07,
      -1.0792436726718717e-07,
      -1.0872031811664281e-07,
      -1.1934255005916763e-07,
      -1.3088784143571796e-07,
      -1.3761041842417333e-07,
      -1.4230587127258744e-07,
      -1.4686702816921522e-07,
      -1.413706283187509e-07,
      -1.425668343494285e-07,
      -1.318003275512351e-07,
      -1.2617129271169368e-07,
      -1.1317029324910812e-07,
      -9.558176772949687e-08,
      -7.779690104593676e-08,
      -5.851967316464799e-08,
      -6.148331606601423e-08,
      -8.235545667749924e-08,
      -8.767090487492139e-08,
      -8.868520780818127e-08,
      -8.949896989021655e-08,
      -9.441677535383152e-08,
      -1.009104778324258e-07,
      -1.0220456019282485e-07,
      -1.0293700500287314e-07,
      -1.064690502889333e-07,
      -1.0958023683439845e-07,
      -1.1333554906253248e-07,
      -1.0886550661864942e-07,
      -1.0940665769208327e-07,
      -1.1672732354366932e-07,
      -1.1922695442241195e-07,
      -1.1820435271428601e-07,
      -1.1949390964542406e-07,
      -1.229016436527481e-07,
      -1.1970352760551156e-07,
      -1.2009600044808714e-07,
      -1.1399852110692864e-07,
      -1.0972447410417261e-07,
      -1.049452780222967e-07,
      -9.67873107972544e-08,
      -9.553733207565497e-08,
      -9.06130075169572e-08,
      -8.204901053617784e-08,
      -7.739416675302299e-08,
      -7.188420589884098e-08,
      -6.784689662416673e-08,
      -5.926352320062757e-08,
      -5.0336615913276505e-08,
      -4.16303646620035e-08,
      -3.748272612643945e-08,
      -4.090629969710994e-08,
      -4.254235494096291e-08,
      -4.6693474312706755e-08,
      -5.1090494198131e-08,
      -5.0395190937771123e-08,
      -4.510999590996552e-08,
      -3.671025339638925e-08,
      -2.7165012065053135e-08,
      -2.3017629010918115e-08,
      -2.144533460809417e-08,
      -1.9397152917859034e-08,
      -1.3654173205170326e-08,
      -2.765299001235139e-09,
      7.744763937125247e-09,
      1.7612779739185287e-08,
      2.5724088510979955e-08,
      2.480787799531738e-08,
      2.798249234640063e-08,
      2.983212009263844e-08,
      3.0445376214218834e-08,
      2.9088860404609436e-08,
      3.082712798726482e-08,
      2.7184974184047326e-08,
      2.6675459309411828e-08,
      2.932140496234519e-08,
      3.258129682837188e-08,
      3.119274354623576e-08,
      2.604413083799521e-08,
      2.978287349108502e-08,
      3.192604264678786e-08,
      2.7412937411803542e-08,
      2.328343979358156e-08,
      2.5378456419391956e-08,
      3.4987243009600426e-08,
      3.743288228452478e-08,
      3.50096437592042e-08,
      4.276304329567002e-08,
      5.385254414136928e-08,
      6.079779663070425e-08,
      5.918036507953828e-08,
      5.214454209533007e-08,
      5.987490922376083e-08,
      6.199144601331834e-08,
      6.557636590556121e-08,
      7.464777256992417e-08,
      7.445166894461258e-08,
      6.477635255475662e-08,
      5.6379349575271704e-08,
      4.957767676799125e-08,
      5.237890965713208e-08,
      5.618378931059607e-08,
      5.794379001888733e-08,
      5.2650414306838934e-08,
      5.2397201060972843e-08,
      5.465421744056546e-08,
      6.118747647842668e-08,
      6.37540849484951e-08,
      6.740224837325257e-08,
      7.061695306703976e-08,
      7.466708284155165e-08,
      7.789519089334495e-08,
      8.508093915441115e-08,
      8.771318312250574e-08,
      8.444210203133493e-08,
      9.677357531454922e-08,
      1.0825355703463465e-07,
      1.188076746512387e-07,
      1.2630404714416954e-07,
      1.2688935773670986e-07,
      1.2392638175724417e-07,
      1.2225732768259106e-07,
      1.1882972926035165e-07,
      1.1538792661066267e-07,
      1.1432259431757305e-07,
      1.1540594478534825e-07,
      1.1671654651776131e-07,
      1.160914240192411e-07,
      1.1436701335488738e-07,
      1.1397525290866525e-07,
      1.0860353524348722e-07,
      1.0404794966571844e-07,
      9.679419213377643e-08,
      9.222272837693906e-08,
      8.769610132123943e-08,
      9.08067423458348e-08,
      9.201082368990636e-08,
      8.56147279426664e-08,
      6.574154006218743e-08,
      5.145242256443086e-08,
      4.947617425130835e-08,
      7.286260368873137e-08,
      8.825113647274717e-08,
      8.712788465756056e-08,
      7.363809005653053e-08,
      6.997940394409145e-08,
      8.762163304663997e-08,
      1.147718693711109e-07,
      1.3214152116953153e-07,
      1.362529126998434e-07,
      1.318664298926523e-07,
      1.203403643612803e-07,
      1.0736719175295915e-07,
      9.398650561568477e-08,
      8.682337601860105e-08,
      1.0078034553155344e-07,
      1.2008892607766766e-07,
      1.3582535437092698e-07,
      1.49944068173232e-07,
      1.5787477221122198e-07,
      1.5828180832027383e-07,
      1.5592022141639763e-07,
      1.6199791141199435e-07,
      1.7465576662252657e-07,
      1.8216787680734884e-07,
      1.8070609504759036e-07,
      1.7457614162875112e-07,
      1.7179516047231786e-07,
      1.397333007448873e-07,
      1.131539198856796e-07,
      1.0682716629893394e-07,
      8.361669092986433e-08,
      6.508787497167137e-08,
      7.328053820174542e-08,
      6.508916381618046e-08,
      6.518900080112818e-08,
      6.581565938744659e-08,
      4.496867477445739e-08,
      4.009103659621313e-08,
      4.294681699301092e-08,
      4.321644340741694e-08,
      3.405725591058354e-08,
      3.1144040496875274e-08,
      3.785673276544687e-08,
      3.638701657764595e-08,
      4.753362927213129e-08,
      5.0956877266863985e-08,
      4.256442871396124e-08,
      5.16472332797757e-08,
      3.8388968720540075e-08,
      4.339662226043227e-08,
      4.502542905151419e-08,
      3.904915215860814e-08,
      3.141287948229274e-08,
      2.7159962628610018e-08,
      2.57678236493039e-08,
      3.00622711913542e-08,
      3.701463836131676e-08,
      3.165569170049497e-08,
      2.7745200014049748e-08,
      2.6222858582604343e-08,
      1.807052039939834e-08,
      1.633194859271318e-08,
      1.3388167185118661e-08,
      6.024256009661153e-09,
      1.4579088440981396e-08,
      4.661215635947236e-09,
      1.2794615789594973e-08,
      2.3156328910597265e-08,
      8.735531057467601e-09,
      -1.1418035491579961e-08,
      -2.8107361282311337e-08,
      -2.7709003889296412e-08,
      -2.148197074171839e-08,
      -1.2864577645726664e-08,
      -7.357117085497456e-09,
      8.053645817404278e-10,
      2.3925842262627467e-08,
      3.401137509179066e-08,
      3.8478864779905076e-08,
      3.6976190493151735e-08,
      4.003476503345944e-08,
      4.532070044384161e-08,
      4.894721130466169e-08,
      4.828882045234153e-08,
      4.7082043310426016e-08,
      5.782264280721508e-08,
      6.387965848268071e-08,
      6.278454577470824e-08,
      6.513412608691131e-08,
      7.352110110251765e-08,
      7.536163797590217e-08,
      6.834790730488971e-08,
      5.946247651418473e-08,
      5.2484855224467265e-08,
      6.994813477795058e-08,
      7.847346053644355e-08,
      8.460163777068501e-08,
      8.568741918373753e-08,
      8.826122556512684e-08,
      8.587043734086398e-08,
      8.458607460665661e-08,
      8.474180253665181e-08,
      8.24471083300829e-08,
      6.850104982587774e-08,
      6.148531796225698e-08,
      6.20682272420504e-08,
      6.984898205731768e-08,
      5.634490728252456e-08,
      3.83530588712719e-08,
      3.151015878556416e-08,
      3.1827533985752664e-08,
      5.759908044378644e-08,
      6.283282604579631e-08,
      7.760720865298576e-08,
      8.108374346713324e-08,
      8.64637831539774e-08,
      9.623786632970724e-08,
      9.860189076142498e-08,
      1.0687178734393453e-07,
      1.1148884616091709e-07,
      1.0164912834457389e-07,
      9.646539040783322e-08,
      7.169441909102586e-08
    ],
    [
      3.168263304867395e-07,
      3.4380028778015364e-07,
      3.468551627780479e-07,
      3.53853218336175e-07,
      3.449498533105208e-07,
      3.38500504098517e-07,
      3.3106092620192516e-07,
      3.4046706286646676e-07,
      3.447916592203975e-07,
      3.4864920474471715e-07,
      3.424686639953722e-07,
      3.3858057683552535e-07,
      3.3522388239261185e-07,
      3.4017854433188803e-07,
      3.323535804277946e-07,
      3.330735016031596e-07,
      3.1443446417398505e-07,
      3.245730476375095e-07,
      3.20844961399035e-07,
      3.235320014606413e-07,
      3.238407117437888e-07,
      3.2537993429146826e-07,
      3.311474168130652e-07,
      3.3140641325516326e-07,
      3.256183244686811e-07,
      3.2942764816493166e-07,
      3.2696289391482864e-07,
      3.1032526949319816e-07,
      3.013412206691232e-07,
      2.9186177749877446e-07,
      2.9042796068913775e-07,
      3.088118348164751e-07,
      3.4322026611161987e-07,
      3.6685262341856643e-07,
      3.453164240275607e-07,
      3.055721666938125e-07,
      2.8071430016005075e-07,
      2.669895906773054e-07,
      2.5284865325118077e-07,
      2.4858548953305274e-07,
      2.344655239154525e-07,
      2.3742913235295503e-07,
      2.3652993172988755e-07,
      2.5610297642245664e-07,
      2.6274420445883715e-07,
      2.791859989298535e-07,
      2.9368590563233455e-07,
      3.1188438610862513e-07,
      3.022485228245292e-07,
      2.7386002219306175e-07,
      2.4614909957902874e-07,
      2.4598374395775684e-07,
      2.554355986780085e-07,
      2.4209795401319626e-07,
      2.300091351813546e-07,
      2.2646813072036498e-07,
      2.2597995418002786e-07,
      2.308607292014692e-07,
      2.3482346249574418e-07,
      2.3931604262852115e-07,
      2.304094948577225e-07,
      2.185482141279249e-07,
      2.0643636465365377e-07,
      1.98593824688157e-07,
      1.904974749313212e-07,
      1.8653996461768226e-07,
      1.856709555893154e-07,
      1.8447956333804222e-07,
      1.8990579564906798e-07,
      1.9904693843490995e-07,
      2.032149135456124e-07,
      1.9901879210206387e-07,
      2.0621937862465998e-07,
      2.0207885614767524e-07,
